<?xml version="1.0"?>
<opencv_storage>
<ladybug type_id="opencv-haar-classifier">
  <size>
    24 24</size>
  <stages>
    <_>
      <trees>
        <_>
          <_>
            <feature>
              <rects>
                <_>
                  1 6 20 8 -1.</_>
                <_>
                  1 10 20 4 2.</_></rects>
              <tilted>0</tilted></feature>
            <threshold>0.0686232075095177</threshold>
            <left_val>-0.9684209823608398</left_val>
            <right_val>0.8761907219886780</right_val></_></_>
        <_>
          <_>
            <feature>
              <rects>
                <_>
                  14 1 8 5 -1.</_>
                <_>
                  16 3 4 5 2.</_></rects>
              <tilted>1</tilted></feature>
            <threshold>-3.0468329787254333e-003</threshold>
            <left_val>0.2852854132652283</left_val>
            <right_val>-0.8581401109695435</right_val></_></_></trees>
      <stage_threshold>-0.6831356287002564</stage_threshold>
      <parent>-1</parent>
      <next>-1</next></_>
    <_>
      <trees>
        <_>
          <_>
            <feature>
              <rects>
                <_>
                  2 8 20 16 -1.</_>
                <_>
                  2 12 20 8 2.</_></rects>
              <tilted>0</tilted></feature>
            <threshold>-0.0967695564031601</threshold>
            <left_val>0.6700013279914856</left_val>
            <right_val>-0.2493952959775925</right_val></_></_>
        <_>
          <_>
            <feature>
              <rects>
                <_>
                  20 9 4 13 -1.</_>
                <_>
                  20 9 2 13 2.</_></rects>
              <tilted>0</tilted></feature>
            <threshold>-0.0150582697242498</threshold>
            <left_val>0.4045428037643433</left_val>
            <right_val>-0.1742576062679291</right_val></_></_>
        <_>
          <_>
            <feature>
              <rects>
                <_>
                  0 9 4 13 -1.</_>
                <_>
                  2 9 2 13 2.</_></rects>
              <tilted>0</tilted></feature>
            <threshold>-5.6736920960247517e-003</threshold>
            <left_val>0.3410809934139252</left_val>
            <right_val>-0.3134937882423401</right_val></_></_>
        <_>
          <_>
            <feature>
              <rects>
                <_>
                  5 12 15 8 -1.</_>
                <_>
                  5 16 15 4 2.</_></rects>
              <tilted>0</tilted></feature>
            <threshold>-0.0315100699663162</threshold>
            <left_val>0.3900077044963837</left_val>
            <right_val>-0.2183732986450195</right_val></_></_>
        <_>
          <_>
            <feature>
              <rects>
                <_>
                  5 4 2 2 -1.</_>
                <_>
                  5 4 1 1 2.</_>
                <_>
                  6 5 1 1 2.</_></rects>
              <tilted>0</tilted></feature>
            <threshold>1.3724000382353552e-005</threshold>
            <left_val>-0.2441250979900360</left_val>
            <right_val>0.2966355085372925</right_val></_></_>
        <_>
          <_>
            <feature>
              <rects>
                <_>
                  10 22 14 2 -1.</_>
                <_>
                  10 22 7 2 2.</_></rects>
              <tilted>0</tilted></feature>
            <threshold>-2.9553230851888657e-003</threshold>
            <left_val>0.1903468072414398</left_val>
            <right_val>-0.1988530009984970</right_val></_></_>
        <_>
          <_>
            <feature>
              <rects>
                <_>
                  5 4 2 2 -1.</_>
                <_>
                  5 4 1 1 2.</_>
                <_>
                  6 5 1 1 2.</_></rects>
              <tilted>0</tilted></feature>
            <threshold>-4.3399060814408585e-005</threshold>
            <left_val>0.3780415058135986</left_val>
            <right_val>-0.2058752030134201</right_val></_></_>
        <_>
          <_>
            <feature>
              <rects>
                <_>
                  12 0 3 8 -1.</_>
                <_>
                  12 2 3 4 2.</_></rects>
              <tilted>0</tilted></feature>
            <threshold>-0.0139810303226113</threshold>
            <left_val>0.4118315875530243</left_val>
            <right_val>-0.0460363999009132</right_val></_></_>
        <_>
          <_>
            <feature>
              <rects>
                <_>
                  9 3 1 2 -1.</_>
                <_>
                  9 4 1 1 2.</_></rects>
              <tilted>0</tilted></feature>
            <threshold>3.5606328310677782e-005</threshold>
            <left_val>-0.2364187985658646</left_val>
            <right_val>0.2979415059089661</right_val></_></_>
        <_>
          <_>
            <feature>
              <rects>
                <_>
                  3 1 21 18 -1.</_>
                <_>
                  10 7 7 6 9.</_></rects>
              <tilted>0</tilted></feature>
            <threshold>-0.4397720098495483</threshold>
            <left_val>0.4471052885055542</left_val>
            <right_val>-0.0852464735507965</right_val></_></_>
        <_>
          <_>
            <feature>
              <rects>
                <_>
                  12 7 2 12 -1.</_>
                <_>
                  9 10 2 6 2.</_></rects>
              <tilted>1</tilted></feature>
            <threshold>-0.0227936003357172</threshold>
            <left_val>0.4988445043563843</left_val>
            <right_val>-0.1421767026185989</right_val></_></_>
        <_>
          <_>
            <feature>
              <rects>
                <_>
                  16 0 3 2 -1.</_>
                <_>
                  17 0 1 2 3.</_></rects>
              <tilted>0</tilted></feature>
            <threshold>-2.4702870287001133e-003</threshold>
            <left_val>-0.6731944084167481</left_val>
            <right_val>0.0837415531277657</right_val></_></_>
        <_>
          <_>
            <feature>
              <rects>
                <_>
                  5 0 14 12 -1.</_>
                <_>
                  5 3 14 6 2.</_></rects>
              <tilted>0</tilted></feature>
            <threshold>-0.0650638788938522</threshold>
            <left_val>0.4531579017639160</left_val>
            <right_val>-0.1558042019605637</right_val></_></_>
        <_>
          <_>
            <feature>
              <rects>
                <_>
                  8 0 16 2 -1.</_>
                <_>
                  12 0 8 2 2.</_></rects>
              <tilted>0</tilted></feature>
            <threshold>0.0235702898353338</threshold>
            <left_val>0.0494804605841637</left_val>
            <right_val>-0.4779301881790161</right_val></_></_>
        <_>
          <_>
            <feature>
              <rects>
                <_>
                  0 0 16 2 -1.</_>
                <_>
                  4 0 8 2 2.</_></rects>
              <tilted>0</tilted></feature>
            <threshold>0.0209365896880627</threshold>
            <left_val>0.0972448065876961</left_val>
            <right_val>-0.7133467793464661</right_val></_></_>
        <_>
          <_>
            <feature>
              <rects>
                <_>
                  23 7 1 4 -1.</_>
                <_>
                  23 8 1 2 2.</_></rects>
              <tilted>0</tilted></feature>
            <threshold>-2.0645020995289087e-003</threshold>
            <left_val>-0.4239127933979034</left_val>
            <right_val>0.0343146398663521</right_val></_></_>
        <_>
          <_>
            <feature>
              <rects>
                <_>
                  0 7 1 4 -1.</_>
                <_>
                  0 8 1 2 2.</_></rects>
              <tilted>0</tilted></feature>
            <threshold>1.6476650489494205e-003</threshold>
            <left_val>0.0898259133100510</left_val>
            <right_val>-0.7356976866722107</right_val></_></_></trees>
      <stage_threshold>-0.9353824853897095</stage_threshold>
      <parent>0</parent>
      <next>-1</next></_>
    <_>
      <trees>
        <_>
          <_>
            <feature>
              <rects>
                <_>
                  1 22 17 2 -1.</_>
                <_>
                  1 23 17 1 2.</_></rects>
              <tilted>0</tilted></feature>
            <threshold>1.8783820560202003e-003</threshold>
            <left_val>-0.3133903145790100</left_val>
            <right_val>0.3188087046146393</right_val></_></_>
        <_>
          <_>
            <feature>
              <rects>
                <_>
                  0 0 24 20 -1.</_>
                <_>
                  0 10 24 10 2.</_></rects>
              <tilted>0</tilted></feature>
            <threshold>0.0585602484643459</threshold>
            <left_val>0.2138244956731796</left_val>
            <right_val>-0.4025141000747681</right_val></_></_>
        <_>
          <_>
            <feature>
              <rects>
                <_>
                  6 13 2 2 -1.</_>
                <_>
                  6 13 1 1 2.</_>
                <_>
                  7 14 1 1 2.</_></rects>
              <tilted>0</tilted></feature>
            <threshold>-3.2054620533017442e-005</threshold>
            <left_val>0.2908403873443604</left_val>
            <right_val>-0.2372675985097885</right_val></_></_>
        <_>
          <_>
            <feature>
              <rects>
                <_>
                  0 21 24 3 -1.</_>
                <_>
                  6 21 12 3 2.</_></rects>
              <tilted>0</tilted></feature>
            <threshold>-0.0536272414028645</threshold>
            <left_val>0.4925101995468140</left_val>
            <right_val>-0.1002644002437592</right_val></_></_>
        <_>
          <_>
            <feature>
              <rects>
                <_>
                  7 0 4 9 -1.</_>
                <_>
                  7 3 4 3 3.</_></rects>
              <tilted>0</tilted></feature>
            <threshold>-0.0142446104437113</threshold>
            <left_val>0.4125109016895294</left_val>
            <right_val>-0.1503251940011978</right_val></_></_>
        <_>
          <_>
            <feature>
              <rects>
                <_>
                  13 8 2 2 -1.</_>
                <_>
                  14 8 1 1 2.</_>
                <_>
                  13 9 1 1 2.</_></rects>
              <tilted>0</tilted></feature>
            <threshold>-3.0778129585087299e-003</threshold>
            <left_val>0.8545653820037842</left_val>
            <right_val>-0.0335156098008156</right_val></_></_>
        <_>
          <_>
            <feature>
              <rects>
                <_>
                  9 8 2 2 -1.</_>
                <_>
                  9 8 1 1 2.</_>
                <_>
                  10 9 1 1 2.</_></rects>
              <tilted>0</tilted></feature>
            <threshold>-1.4679570085718296e-005</threshold>
            <left_val>0.2845886945724487</left_val>
            <right_val>-0.1987379938364029</right_val></_></_>
        <_>
          <_>
            <feature>
              <rects>
                <_>
                  23 0 1 3 -1.</_>
                <_>
                  23 1 1 1 3.</_></rects>
              <tilted>0</tilted></feature>
            <threshold>-5.5778841488063335e-004</threshold>
            <left_val>-0.4268546104431152</left_val>
            <right_val>0.1452555060386658</right_val></_></_>
        <_>
          <_>
            <feature>
              <rects>
                <_>
                  8 2 5 6 -1.</_>
                <_>
                  8 4 5 2 3.</_></rects>
              <tilted>0</tilted></feature>
            <threshold>5.5263061076402664e-003</threshold>
            <left_val>-0.2328909933567047</left_val>
            <right_val>0.2517437040805817</right_val></_></_>
        <_>
          <_>
            <feature>
              <rects>
                <_>
                  21 7 3 9 -1.</_>
                <_>
                  22 7 1 9 3.</_></rects>
              <tilted>0</tilted></feature>
            <threshold>-3.8805669173598289e-003</threshold>
            <left_val>0.2366236001253128</left_val>
            <right_val>-0.0418919511139393</right_val></_></_>
        <_>
          <_>
            <feature>
              <rects>
                <_>
                  0 7 3 9 -1.</_>
                <_>
                  1 7 1 9 3.</_></rects>
              <tilted>0</tilted></feature>
            <threshold>-4.4447639957070351e-003</threshold>
            <left_val>0.4391837120056152</left_val>
            <right_val>-0.1361739039421082</right_val></_></_>
        <_>
          <_>
            <feature>
              <rects>
                <_>
                  18 1 4 2 -1.</_>
                <_>
                  19 2 2 2 2.</_></rects>
              <tilted>1</tilted></feature>
            <threshold>-0.0111894998699427</threshold>
            <left_val>-0.8066632747650147</left_val>
            <right_val>0.0396427288651466</right_val></_></_>
        <_>
          <_>
            <feature>
              <rects>
                <_>
                  0 0 1 3 -1.</_>
                <_>
                  0 1 1 1 3.</_></rects>
              <tilted>0</tilted></feature>
            <threshold>-6.6231581149622798e-004</threshold>
            <left_val>-0.5565677881240845</left_val>
            <right_val>0.1119495034217835</right_val></_></_>
        <_>
          <_>
            <feature>
              <rects>
                <_>
                  1 0 22 6 -1.</_>
                <_>
                  1 3 22 3 2.</_></rects>
              <tilted>0</tilted></feature>
            <threshold>-0.0339618101716042</threshold>
            <left_val>0.2865839004516602</left_val>
            <right_val>-0.2404921948909760</right_val></_></_>
        <_>
          <_>
            <feature>
              <rects>
                <_>
                  0 0 2 3 -1.</_>
                <_>
                  0 1 2 1 3.</_></rects>
              <tilted>0</tilted></feature>
            <threshold>1.4820550568401814e-003</threshold>
            <left_val>0.1244236007332802</left_val>
            <right_val>-0.5890691876411438</right_val></_></_>
        <_>
          <_>
            <feature>
              <rects>
                <_>
                  14 6 6 8 -1.</_>
                <_>
                  16 8 2 8 3.</_></rects>
              <tilted>1</tilted></feature>
            <threshold>-0.0199497304856777</threshold>
            <left_val>0.2324199974536896</left_val>
            <right_val>-0.1678355038166046</right_val></_></_>
        <_>
          <_>
            <feature>
              <rects>
                <_>
                  0 11 24 2 -1.</_>
                <_>
                  6 11 12 2 2.</_></rects>
              <tilted>0</tilted></feature>
            <threshold>0.0306796096265316</threshold>
            <left_val>-0.1084481030702591</left_val>
            <right_val>0.5772393941879273</right_val></_></_>
        <_>
          <_>
            <feature>
              <rects>
                <_>
                  21 4 2 20 -1.</_>
                <_>
                  21 4 1 20 2.</_></rects>
              <tilted>0</tilted></feature>
            <threshold>5.9523349627852440e-003</threshold>
            <left_val>0.0914734825491905</left_val>
            <right_val>-0.4057793915271759</right_val></_></_>
        <_>
          <_>
            <feature>
              <rects>
                <_>
                  3 4 2 2 -1.</_>
                <_>
                  3 4 1 1 2.</_>
                <_>
                  4 5 1 1 2.</_></rects>
              <tilted>0</tilted></feature>
            <threshold>1.2140139915572945e-005</threshold>
            <left_val>-0.2060405015945435</left_val>
            <right_val>0.2818171083927155</right_val></_></_>
        <_>
          <_>
            <feature>
              <rects>
                <_>
                  18 20 1 2 -1.</_>
                <_>
                  18 20 1 1 2.</_></rects>
              <tilted>1</tilted></feature>
            <threshold>-6.8471701815724373e-003</threshold>
            <left_val>-0.8431637883186340</left_val>
            <right_val>0.0146882599219680</right_val></_></_>
        <_>
          <_>
            <feature>
              <rects>
                <_>
                  6 20 2 1 -1.</_>
                <_>
                  6 20 1 1 2.</_></rects>
              <tilted>1</tilted></feature>
            <threshold>1.3224399881437421e-003</threshold>
            <left_val>0.1138428971171379</left_val>
            <right_val>-0.5045416951179504</right_val></_></_>
        <_>
          <_>
            <feature>
              <rects>
                <_>
                  10 13 4 4 -1.</_>
                <_>
                  12 13 2 2 2.</_>
                <_>
                  10 15 2 2 2.</_></rects>
              <tilted>0</tilted></feature>
            <threshold>-7.8042941167950630e-003</threshold>
            <left_val>0.5823637247085571</left_val>
            <right_val>-0.1102147996425629</right_val></_></_></trees>
      <stage_threshold>-0.9260401129722595</stage_threshold>
      <parent>1</parent>
      <next>-1</next></_>
    <_>
      <trees>
        <_>
          <_>
            <feature>
              <rects>
                <_>
                  0 16 24 8 -1.</_>
                <_>
                  8 16 8 8 3.</_></rects>
              <tilted>0</tilted></feature>
            <threshold>-0.0649076625704765</threshold>
            <left_val>0.4204277098178864</left_val>
            <right_val>-0.3955667018890381</right_val></_></_>
        <_>
          <_>
            <feature>
              <rects>
                <_>
                  20 2 4 19 -1.</_>
                <_>
                  20 2 2 19 2.</_></rects>
              <tilted>0</tilted></feature>
            <threshold>-0.0185847897082567</threshold>
            <left_val>0.3366214931011200</left_val>
            <right_val>-0.1909292936325073</right_val></_></_>
        <_>
          <_>
            <feature>
              <rects>
                <_>
                  0 2 4 19 -1.</_>
                <_>
                  2 2 2 19 2.</_></rects>
              <tilted>0</tilted></feature>
            <threshold>-0.0153843797743320</threshold>
            <left_val>0.3593912124633789</left_val>
            <right_val>-0.2425802052021027</right_val></_></_>
        <_>
          <_>
            <feature>
              <rects>
                <_>
                  23 19 1 2 -1.</_>
                <_>
                  23 20 1 1 2.</_></rects>
              <tilted>0</tilted></feature>
            <threshold>1.0812859982252121e-003</threshold>
            <left_val>0.0858665704727173</left_val>
            <right_val>-0.5629274249076843</right_val></_></_>
        <_>
          <_>
            <feature>
              <rects>
                <_>
                  0 19 1 2 -1.</_>
                <_>
                  0 20 1 1 2.</_></rects>
              <tilted>0</tilted></feature>
            <threshold>-1.3705180026590824e-003</threshold>
            <left_val>-0.8494105935096741</left_val>
            <right_val>0.1139677986502647</right_val></_></_>
        <_>
          <_>
            <feature>
              <rects>
                <_>
                  2 0 20 24 -1.</_>
                <_>
                  2 12 20 12 2.</_></rects>
              <tilted>0</tilted></feature>
            <threshold>0.5730540156364441</threshold>
            <left_val>0.0852029621601105</left_val>
            <right_val>-0.9999778270721436</right_val></_></_>
        <_>
          <_>
            <feature>
              <rects>
                <_>
                  8 0 3 1 -1.</_>
                <_>
                  9 0 1 1 3.</_></rects>
              <tilted>0</tilted></feature>
            <threshold>-7.6501682633534074e-004</threshold>
            <left_val>-0.5542511940002441</left_val>
            <right_val>0.1420799046754837</right_val></_></_>
        <_>
          <_>
            <feature>
              <rects>
                <_>
                  21 23 3 1 -1.</_>
                <_>
                  22 23 1 1 3.</_></rects>
              <tilted>0</tilted></feature>
            <threshold>1.3501440407708287e-003</threshold>
            <left_val>0.0698643103241920</left_val>
            <right_val>-0.5375900268554688</right_val></_></_>
        <_>
          <_>
            <feature>
              <rects>
                <_>
                  2 0 2 2 -1.</_>
                <_>
                  2 0 1 1 2.</_>
                <_>
                  3 1 1 1 2.</_></rects>
              <tilted>0</tilted></feature>
            <threshold>9.7195187117904425e-004</threshold>
            <left_val>0.1255324929952622</left_val>
            <right_val>-0.6916940808296204</right_val></_></_>
        <_>
          <_>
            <feature>
              <rects>
                <_>
                  20 0 2 2 -1.</_>
                <_>
                  21 0 1 1 2.</_>
                <_>
                  20 1 1 1 2.</_></rects>
              <tilted>0</tilted></feature>
            <threshold>8.0208719009533525e-004</threshold>
            <left_val>0.0715716406702995</left_val>
            <right_val>-0.5165792107582092</right_val></_></_>
        <_>
          <_>
            <feature>
              <rects>
                <_>
                  0 5 20 8 -1.</_>
                <_>
                  5 5 10 8 2.</_></rects>
              <tilted>0</tilted></feature>
            <threshold>0.0652468204498291</threshold>
            <left_val>-0.1801424026489258</left_val>
            <right_val>0.4624030888080597</right_val></_></_>
        <_>
          <_>
            <feature>
              <rects>
                <_>
                  20 1 3 2 -1.</_>
                <_>
                  21 2 1 2 3.</_></rects>
              <tilted>1</tilted></feature>
            <threshold>-3.4842370077967644e-003</threshold>
            <left_val>-0.4383401870727539</left_val>
            <right_val>0.0963493734598160</right_val></_></_>
        <_>
          <_>
            <feature>
              <rects>
                <_>
                  4 1 2 3 -1.</_>
                <_>
                  3 2 2 1 3.</_></rects>
              <tilted>1</tilted></feature>
            <threshold>6.3532660715281963e-003</threshold>
            <left_val>0.1087704002857208</left_val>
            <right_val>-0.7281094193458557</right_val></_></_></trees>
      <stage_threshold>-0.8728451728820801</stage_threshold>
      <parent>2</parent>
      <next>-1</next></_>
    <_>
      <trees>
        <_>
          <_>
            <feature>
              <rects>
                <_>
                  0 3 4 16 -1.</_>
                <_>
                  2 3 2 16 2.</_></rects>
              <tilted>0</tilted></feature>
            <threshold>-0.0191437192261219</threshold>
            <left_val>0.4631369113922119</left_val>
            <right_val>-0.2540895044803619</right_val></_></_>
        <_>
          <_>
            <feature>
              <rects>
                <_>
                  20 7 3 9 -1.</_>
                <_>
                  21 7 1 9 3.</_></rects>
              <tilted>0</tilted></feature>
            <threshold>4.2930501513183117e-003</threshold>
            <left_val>-0.0861893296241760</left_val>
            <right_val>0.4212585091590881</right_val></_></_>
        <_>
          <_>
            <feature>
              <rects>
                <_>
                  1 7 3 9 -1.</_>
                <_>
                  2 7 1 9 3.</_></rects>
              <tilted>0</tilted></feature>
            <threshold>4.5429170131683350e-003</threshold>
            <left_val>-0.1339138001203537</left_val>
            <right_val>0.5625941753387451</right_val></_></_>
        <_>
          <_>
            <feature>
              <rects>
                <_>
                  0 20 24 4 -1.</_>
                <_>
                  0 22 24 2 2.</_></rects>
              <tilted>0</tilted></feature>
            <threshold>-6.4606950618326664e-003</threshold>
            <left_val>-0.4601438939571381</left_val>
            <right_val>0.1742244958877564</right_val></_></_>
        <_>
          <_>
            <feature>
              <rects>
                <_>
                  0 12 2 10 -1.</_>
                <_>
                  0 17 2 5 2.</_></rects>
              <tilted>0</tilted></feature>
            <threshold>-0.0150519702583551</threshold>
            <left_val>-0.6580808758735657</left_val>
            <right_val>0.1133352965116501</right_val></_></_>
        <_>
          <_>
            <feature>
              <rects>
                <_>
                  20 5 3 14 -1.</_>
                <_>
                  21 5 1 14 3.</_></rects>
              <tilted>0</tilted></feature>
            <threshold>-3.9172470569610596e-003</threshold>
            <left_val>0.3925561904907227</left_val>
            <right_val>-0.1320839971303940</right_val></_></_>
        <_>
          <_>
            <feature>
              <rects>
                <_>
                  1 5 3 14 -1.</_>
                <_>
                  2 5 1 14 3.</_></rects>
              <tilted>0</tilted></feature>
            <threshold>-4.9984781071543694e-003</threshold>
            <left_val>0.5055636763572693</left_val>
            <right_val>-0.1637620031833649</right_val></_></_>
        <_>
          <_>
            <feature>
              <rects>
                <_>
                  14 7 3 13 -1.</_>
                <_>
                  15 7 1 13 3.</_></rects>
              <tilted>0</tilted></feature>
            <threshold>6.1155371367931366e-003</threshold>
            <left_val>-0.0654832795262337</left_val>
            <right_val>0.5654054880142212</right_val></_></_>
        <_>
          <_>
            <feature>
              <rects>
                <_>
                  0 22 1 2 -1.</_>
                <_>
                  0 23 1 1 2.</_></rects>
              <tilted>0</tilted></feature>
            <threshold>-4.6945639769546688e-004</threshold>
            <left_val>-0.4861659109592438</left_val>
            <right_val>0.1331333965063095</right_val></_></_>
        <_>
          <_>
            <feature>
              <rects>
                <_>
                  0 18 24 6 -1.</_>
                <_>
                  6 18 12 6 2.</_></rects>
              <tilted>0</tilted></feature>
            <threshold>-0.0108532300218940</threshold>
            <left_val>0.1619949936866760</left_val>
            <right_val>-0.3734152913093567</right_val></_></_>
        <_>
          <_>
            <feature>
              <rects>
                <_>
                  2 7 3 5 -1.</_>
                <_>
                  3 7 1 5 3.</_></rects>
              <tilted>0</tilted></feature>
            <threshold>2.1839789114892483e-003</threshold>
            <left_val>-0.1505942046642304</left_val>
            <right_val>0.4591456055641174</right_val></_></_>
        <_>
          <_>
            <feature>
              <rects>
                <_>
                  12 0 3 11 -1.</_>
                <_>
                  13 1 1 11 3.</_></rects>
              <tilted>1</tilted></feature>
            <threshold>-0.0141131896525621</threshold>
            <left_val>0.3490383923053742</left_val>
            <right_val>-0.0673954933881760</right_val></_></_>
        <_>
          <_>
            <feature>
              <rects>
                <_>
                  1 0 1 2 -1.</_>
                <_>
                  1 1 1 1 2.</_></rects>
              <tilted>0</tilted></feature>
            <threshold>5.2860187133774161e-004</threshold>
            <left_val>0.1123682036995888</left_val>
            <right_val>-0.5261120796203613</right_val></_></_>
        <_>
          <_>
            <feature>
              <rects>
                <_>
                  17 5 4 11 -1.</_>
                <_>
                  18 6 2 11 2.</_></rects>
              <tilted>1</tilted></feature>
            <threshold>-0.0296702794730663</threshold>
            <left_val>0.3348351120948792</left_val>
            <right_val>-0.0430154092609882</right_val></_></_>
        <_>
          <_>
            <feature>
              <rects>
                <_>
                  7 5 11 4 -1.</_>
                <_>
                  6 6 11 2 2.</_></rects>
              <tilted>1</tilted></feature>
            <threshold>0.0125829400494695</threshold>
            <left_val>-0.1524520069360733</left_val>
            <right_val>0.4429891109466553</right_val></_></_>
        <_>
          <_>
            <feature>
              <rects>
                <_>
                  20 0 4 2 -1.</_>
                <_>
                  20 1 4 1 2.</_></rects>
              <tilted>0</tilted></feature>
            <threshold>2.4024599697440863e-003</threshold>
            <left_val>0.0959218367934227</left_val>
            <right_val>-0.6284970045089722</right_val></_></_>
        <_>
          <_>
            <feature>
              <rects>
                <_>
                  2 0 4 1 -1.</_>
                <_>
                  4 0 2 1 2.</_></rects>
              <tilted>0</tilted></feature>
            <threshold>-1.8267399864271283e-003</threshold>
            <left_val>-0.5454354286193848</left_val>
            <right_val>0.1079398021101952</right_val></_></_>
        <_>
          <_>
            <feature>
              <rects>
                <_>
                  15 3 4 11 -1.</_>
                <_>
                  16 4 2 11 2.</_></rects>
              <tilted>1</tilted></feature>
            <threshold>0.0185460895299912</threshold>
            <left_val>-0.0633703991770744</left_val>
            <right_val>0.3091152906417847</right_val></_></_>
        <_>
          <_>
            <feature>
              <rects>
                <_>
                  6 11 4 3 -1.</_>
                <_>
                  5 12 4 1 3.</_></rects>
              <tilted>1</tilted></feature>
            <threshold>-0.0115818995982409</threshold>
            <left_val>0.7078425288200378</left_val>
            <right_val>-0.0822824835777283</right_val></_></_>
        <_>
          <_>
            <feature>
              <rects>
                <_>
                  1 0 23 24 -1.</_>
                <_>
                  1 12 23 12 2.</_></rects>
              <tilted>0</tilted></feature>
            <threshold>-0.1553170979022980</threshold>
            <left_val>0.2541441023349762</left_val>
            <right_val>-0.1994591057300568</right_val></_></_>
        <_>
          <_>
            <feature>
              <rects>
                <_>
                  7 7 3 13 -1.</_>
                <_>
                  8 7 1 13 3.</_></rects>
              <tilted>0</tilted></feature>
            <threshold>-5.4111671634018421e-003</threshold>
            <left_val>0.4919421970844269</left_val>
            <right_val>-0.1244184970855713</right_val></_></_></trees>
      <stage_threshold>-0.9342703819274902</stage_threshold>
      <parent>3</parent>
      <next>-1</next></_>
    <_>
      <trees>
        <_>
          <_>
            <feature>
              <rects>
                <_>
                  0 1 6 23 -1.</_>
                <_>
                  3 1 3 23 2.</_></rects>
              <tilted>0</tilted></feature>
            <threshold>-0.0348005108535290</threshold>
            <left_val>0.3617325127124786</left_val>
            <right_val>-0.2742654979228973</right_val></_></_>
        <_>
          <_>
            <feature>
              <rects>
                <_>
                  23 0 1 2 -1.</_>
                <_>
                  23 1 1 1 2.</_></rects>
              <tilted>0</tilted></feature>
            <threshold>-3.6244280636310577e-004</threshold>
            <left_val>-0.3770608007907867</left_val>
            <right_val>0.1310736984014511</right_val></_></_>
        <_>
          <_>
            <feature>
              <rects>
                <_>
                  0 0 2 3 -1.</_>
                <_>
                  0 1 2 1 3.</_></rects>
              <tilted>0</tilted></feature>
            <threshold>-1.3923780061304569e-003</threshold>
            <left_val>-0.5813679099082947</left_val>
            <right_val>0.1157689988613129</right_val></_></_>
        <_>
          <_>
            <feature>
              <rects>
                <_>
                  23 12 1 2 -1.</_>
                <_>
                  23 13 1 1 2.</_></rects>
              <tilted>0</tilted></feature>
            <threshold>-1.1761320056393743e-003</threshold>
            <left_val>-0.6748151183128357</left_val>
            <right_val>0.1232717037200928</right_val></_></_>
        <_>
          <_>
            <feature>
              <rects>
                <_>
                  12 7 12 3 -1.</_>
                <_>
                  15 10 6 3 2.</_></rects>
              <tilted>1</tilted></feature>
            <threshold>-0.0308861695230007</threshold>
            <left_val>0.3948951065540314</left_val>
            <right_val>-0.1733444929122925</right_val></_></_>
        <_>
          <_>
            <feature>
              <rects>
                <_>
                  21 2 3 3 -1.</_>
                <_>
                  21 3 3 1 3.</_></rects>
              <tilted>0</tilted></feature>
            <threshold>-2.9068540316075087e-003</threshold>
            <left_val>-0.5494878888130188</left_val>
            <right_val>0.0851327031850815</right_val></_></_>
        <_>
          <_>
            <feature>
              <rects>
                <_>
                  0 2 4 4 -1.</_>
                <_>
                  0 3 4 2 2.</_></rects>
              <tilted>0</tilted></feature>
            <threshold>-3.3352589234709740e-003</threshold>
            <left_val>-0.5689501166343689</left_val>
            <right_val>0.1158227995038033</right_val></_></_>
        <_>
          <_>
            <feature>
              <rects>
                <_>
                  15 1 6 12 -1.</_>
                <_>
                  18 1 3 6 2.</_>
                <_>
                  15 7 3 6 2.</_></rects>
              <tilted>0</tilted></feature>
            <threshold>0.0124263800680637</threshold>
            <left_val>-0.1522029042243958</left_val>
            <right_val>0.3022131919860840</right_val></_></_>
        <_>
          <_>
            <feature>
              <rects>
                <_>
                  0 9 1 6 -1.</_>
                <_>
                  0 11 1 2 3.</_></rects>
              <tilted>0</tilted></feature>
            <threshold>2.5962030049413443e-003</threshold>
            <left_val>0.1042210012674332</left_val>
            <right_val>-0.5078921914100647</right_val></_></_>
        <_>
          <_>
            <feature>
              <rects>
                <_>
                  14 9 6 9 -1.</_>
                <_>
                  16 9 2 9 3.</_></rects>
              <tilted>0</tilted></feature>
            <threshold>0.0140617201104760</threshold>
            <left_val>-0.0744794979691505</left_val>
            <right_val>0.2624357938766480</right_val></_></_>
        <_>
          <_>
            <feature>
              <rects>
                <_>
                  3 5 9 14 -1.</_>
                <_>
                  6 5 3 14 3.</_></rects>
              <tilted>0</tilted></feature>
            <threshold>0.0365943387150764</threshold>
            <left_val>-0.1198898032307625</left_val>
            <right_val>0.4581570923328400</right_val></_></_>
        <_>
          <_>
            <feature>
              <rects>
                <_>
                  0 6 24 18 -1.</_>
                <_>
                  6 6 12 18 2.</_></rects>
              <tilted>0</tilted></feature>
            <threshold>-0.2550174891948700</threshold>
            <left_val>0.4914439916610718</left_val>
            <right_val>-0.1285277009010315</right_val></_></_>
        <_>
          <_>
            <feature>
              <rects>
                <_>
                  0 0 3 18 -1.</_>
                <_>
                  1 0 1 18 3.</_></rects>
              <tilted>0</tilted></feature>
            <threshold>-2.5952889118343592e-003</threshold>
            <left_val>0.3028261959552765</left_val>
            <right_val>-0.2146635949611664</right_val></_></_>
        <_>
          <_>
            <feature>
              <rects>
                <_>
                  23 22 1 2 -1.</_>
                <_>
                  23 23 1 1 2.</_></rects>
              <tilted>0</tilted></feature>
            <threshold>-3.1131578725762665e-004</threshold>
            <left_val>-0.3109380006790161</left_val>
            <right_val>0.1272927969694138</right_val></_></_>
        <_>
          <_>
            <feature>
              <rects>
                <_>
                  0 22 1 2 -1.</_>
                <_>
                  0 23 1 1 2.</_></rects>
              <tilted>0</tilted></feature>
            <threshold>3.7910678656771779e-004</threshold>
            <left_val>0.1446990072727203</left_val>
            <right_val>-0.3994866013526917</right_val></_></_>
        <_>
          <_>
            <feature>
              <rects>
                <_>
                  0 7 24 15 -1.</_>
                <_>
                  8 12 8 5 9.</_></rects>
              <tilted>0</tilted></feature>
            <threshold>0.6409897804260254</threshold>
            <left_val>-0.0729215890169144</left_val>
            <right_val>0.8831347823143005</right_val></_></_>
        <_>
          <_>
            <feature>
              <rects>
                <_>
                  1 10 2 11 -1.</_>
                <_>
                  2 10 1 11 2.</_></rects>
              <tilted>0</tilted></feature>
            <threshold>-3.3222800120711327e-003</threshold>
            <left_val>0.3262723982334137</left_val>
            <right_val>-0.1631049960851669</right_val></_></_>
        <_>
          <_>
            <feature>
              <rects>
                <_>
                  23 20 1 3 -1.</_>
                <_>
                  23 21 1 1 3.</_></rects>
              <tilted>0</tilted></feature>
            <threshold>-1.8122160108759999e-003</threshold>
            <left_val>-0.5900909900665283</left_val>
            <right_val>0.0590316802263260</right_val></_></_>
        <_>
          <_>
            <feature>
              <rects>
                <_>
                  0 20 1 3 -1.</_>
                <_>
                  0 21 1 1 3.</_></rects>
              <tilted>0</tilted></feature>
            <threshold>7.4868201045319438e-004</threshold>
            <left_val>0.1138266995549202</left_val>
            <right_val>-0.4997968077659607</right_val></_></_></trees>
      <stage_threshold>-0.8861963152885437</stage_threshold>
      <parent>4</parent>
      <next>-1</next></_>
    <_>
      <trees>
        <_>
          <_>
            <feature>
              <rects>
                <_>
                  0 20 24 3 -1.</_>
                <_>
                  6 20 12 3 2.</_></rects>
              <tilted>0</tilted></feature>
            <threshold>-0.0354064814746380</threshold>
            <left_val>0.2907477915287018</left_val>
            <right_val>-0.2374451011419296</right_val></_></_>
        <_>
          <_>
            <feature>
              <rects>
                <_>
                  17 0 7 6 -1.</_>
                <_>
                  15 2 7 2 3.</_></rects>
              <tilted>1</tilted></feature>
            <threshold>-0.0322445705533028</threshold>
            <left_val>0.3470608890056610</left_val>
            <right_val>-0.1407728940248489</right_val></_></_>
        <_>
          <_>
            <feature>
              <rects>
                <_>
                  1 1 2 3 -1.</_>
                <_>
                  1 2 2 1 3.</_></rects>
              <tilted>0</tilted></feature>
            <threshold>-2.0608049817383289e-004</threshold>
            <left_val>-0.3073835074901581</left_val>
            <right_val>0.1971565932035446</right_val></_></_>
        <_>
          <_>
            <feature>
              <rects>
                <_>
                  22 15 2 3 -1.</_>
                <_>
                  22 16 2 1 3.</_></rects>
              <tilted>0</tilted></feature>
            <threshold>1.2658049818128347e-003</threshold>
            <left_val>0.1226053982973099</left_val>
            <right_val>-0.4947332143783569</right_val></_></_>
        <_>
          <_>
            <feature>
              <rects>
                <_>
                  12 0 12 6 -1.</_>
                <_>
                  10 2 12 2 3.</_></rects>
              <tilted>1</tilted></feature>
            <threshold>-0.0302935894578695</threshold>
            <left_val>0.4014992117881775</left_val>
            <right_val>-0.1202671006321907</right_val></_></_>
        <_>
          <_>
            <feature>
              <rects>
                <_>
                  15 5 9 10 -1.</_>
                <_>
                  18 5 3 10 3.</_></rects>
              <tilted>0</tilted></feature>
            <threshold>-0.0207472201436758</threshold>
            <left_val>0.2697497010231018</left_val>
            <right_val>-0.1182983964681625</right_val></_></_>
        <_>
          <_>
            <feature>
              <rects>
                <_>
                  1 11 20 12 -1.</_>
                <_>
                  1 14 20 6 2.</_></rects>
              <tilted>0</tilted></feature>
            <threshold>-0.0291632208973169</threshold>
            <left_val>0.2283663004636765</left_val>
            <right_val>-0.2528729140758514</right_val></_></_>
        <_>
          <_>
            <feature>
              <rects>
                <_>
                  23 17 1 4 -1.</_>
                <_>
                  23 18 1 2 2.</_></rects>
              <tilted>0</tilted></feature>
            <threshold>2.1565470378845930e-003</threshold>
            <left_val>0.0596694312989712</left_val>
            <right_val>-0.5788648128509522</right_val></_></_>
        <_>
          <_>
            <feature>
              <rects>
                <_>
                  0 17 1 4 -1.</_>
                <_>
                  0 18 1 2 2.</_></rects>
              <tilted>0</tilted></feature>
            <threshold>-9.5835747197270393e-004</threshold>
            <left_val>-0.5147141218185425</left_val>
            <right_val>0.1130708009004593</right_val></_></_>
        <_>
          <_>
            <feature>
              <rects>
                <_>
                  12 0 6 20 -1.</_>
                <_>
                  14 0 2 20 3.</_></rects>
              <tilted>0</tilted></feature>
            <threshold>-0.0190198402851820</threshold>
            <left_val>0.1570851057767868</left_val>
            <right_val>-0.0833723768591881</right_val></_></_>
        <_>
          <_>
            <feature>
              <rects>
                <_>
                  6 0 6 20 -1.</_>
                <_>
                  8 0 2 20 3.</_></rects>
              <tilted>0</tilted></feature>
            <threshold>-0.0264518000185490</threshold>
            <left_val>0.4680168926715851</left_val>
            <right_val>-0.1148028969764710</right_val></_></_>
        <_>
          <_>
            <feature>
              <rects>
                <_>
                  22 17 2 4 -1.</_>
                <_>
                  22 18 2 2 2.</_></rects>
              <tilted>0</tilted></feature>
            <threshold>-2.1287871059030294e-003</threshold>
            <left_val>-0.2746413052082062</left_val>
            <right_val>0.0555337592959404</right_val></_></_>
        <_>
          <_>
            <feature>
              <rects>
                <_>
                  10 0 4 9 -1.</_>
                <_>
                  11 1 2 9 2.</_></rects>
              <tilted>1</tilted></feature>
            <threshold>-0.0199281591922045</threshold>
            <left_val>0.5003749132156372</left_val>
            <right_val>-0.1048178002238274</right_val></_></_>
        <_>
          <_>
            <feature>
              <rects>
                <_>
                  13 0 3 5 -1.</_>
                <_>
                  14 0 1 5 3.</_></rects>
              <tilted>0</tilted></feature>
            <threshold>5.9283361770212650e-003</threshold>
            <left_val>0.0352941118180752</left_val>
            <right_val>-0.4838919043540955</right_val></_></_>
        <_>
          <_>
            <feature>
              <rects>
                <_>
                  8 0 3 5 -1.</_>
                <_>
                  9 0 1 5 3.</_></rects>
              <tilted>0</tilted></feature>
            <threshold>-4.4801142066717148e-003</threshold>
            <left_val>-0.6519008874893189</left_val>
            <right_val>0.0787150487303734</right_val></_></_>
        <_>
          <_>
            <feature>
              <rects>
                <_>
                  22 7 2 3 -1.</_>
                <_>
                  22 8 2 1 3.</_></rects>
              <tilted>0</tilted></feature>
            <threshold>1.0430179536342621e-003</threshold>
            <left_val>0.0728913694620132</left_val>
            <right_val>-0.2813627123832703</right_val></_></_>
        <_>
          <_>
            <feature>
              <rects>
                <_>
                  1 4 3 3 -1.</_>
                <_>
                  1 5 3 1 3.</_></rects>
              <tilted>0</tilted></feature>
            <threshold>-3.3733989112079144e-003</threshold>
            <left_val>-0.6037775874137878</left_val>
            <right_val>0.0833438783884048</right_val></_></_>
        <_>
          <_>
            <feature>
              <rects>
                <_>
                  18 0 5 4 -1.</_>
                <_>
                  17 1 5 2 2.</_></rects>
              <tilted>1</tilted></feature>
            <threshold>0.0147968698292971</threshold>
            <left_val>-0.0772332698106766</left_val>
            <right_val>0.4707958102226257</right_val></_></_>
        <_>
          <_>
            <feature>
              <rects>
                <_>
                  5 1 4 4 -1.</_>
                <_>
                  6 2 2 4 2.</_></rects>
              <tilted>1</tilted></feature>
            <threshold>-8.5188234224915504e-003</threshold>
            <left_val>0.4393897056579590</left_val>
            <right_val>-0.1333813071250916</right_val></_></_>
        <_>
          <_>
            <feature>
              <rects>
                <_>
                  22 5 1 3 -1.</_>
                <_>
                  22 6 1 1 3.</_></rects>
              <tilted>0</tilted></feature>
            <threshold>-1.6366640338674188e-003</threshold>
            <left_val>-0.4184116125106812</left_val>
            <right_val>0.0495744198560715</right_val></_></_>
        <_>
          <_>
            <feature>
              <rects>
                <_>
                  4 12 13 12 -1.</_>
                <_>
                  4 18 13 6 2.</_></rects>
              <tilted>0</tilted></feature>
            <threshold>-0.0618391595780849</threshold>
            <left_val>0.3525288105010986</left_val>
            <right_val>-0.1551195979118347</right_val></_></_>
        <_>
          <_>
            <feature>
              <rects>
                <_>
                  19 4 3 12 -1.</_>
                <_>
                  16 7 3 6 2.</_></rects>
              <tilted>1</tilted></feature>
            <threshold>4.0948200039565563e-003</threshold>
            <left_val>0.0789358764886856</left_val>
            <right_val>-0.0890533179044724</right_val></_></_>
        <_>
          <_>
            <feature>
              <rects>
                <_>
                  0 9 1 4 -1.</_>
                <_>
                  0 10 1 2 2.</_></rects>
              <tilted>0</tilted></feature>
            <threshold>8.0535328015685081e-004</threshold>
            <left_val>0.1186323016881943</left_val>
            <right_val>-0.4439406991004944</right_val></_></_>
        <_>
          <_>
            <feature>
              <rects>
                <_>
                  22 5 2 3 -1.</_>
                <_>
                  22 6 2 1 3.</_></rects>
              <tilted>0</tilted></feature>
            <threshold>1.7780009657144547e-003</threshold>
            <left_val>0.0563052408397198</left_val>
            <right_val>-0.3279356062412262</right_val></_></_>
        <_>
          <_>
            <feature>
              <rects>
                <_>
                  0 5 2 3 -1.</_>
                <_>
                  0 6 2 1 3.</_></rects>
              <tilted>0</tilted></feature>
            <threshold>-2.0611640065908432e-003</threshold>
            <left_val>-0.5929120779037476</left_val>
            <right_val>0.0915251821279526</right_val></_></_>
        <_>
          <_>
            <feature>
              <rects>
                <_>
                  9 0 6 4 -1.</_>
                <_>
                  9 1 6 2 2.</_></rects>
              <tilted>0</tilted></feature>
            <threshold>-5.2016167901456356e-003</threshold>
            <left_val>0.3970429897308350</left_val>
            <right_val>-0.1272386014461517</right_val></_></_>
        <_>
          <_>
            <feature>
              <rects>
                <_>
                  10 5 6 4 -1.</_>
                <_>
                  12 7 2 4 3.</_></rects>
              <tilted>1</tilted></feature>
            <threshold>-0.0265380293130875</threshold>
            <left_val>0.4787513017654419</left_val>
            <right_val>-0.1000074967741966</right_val></_></_>
        <_>
          <_>
            <feature>
              <rects>
                <_>
                  14 7 9 4 -1.</_>
                <_>
                  17 7 3 4 3.</_></rects>
              <tilted>0</tilted></feature>
            <threshold>-0.0111075304448605</threshold>
            <left_val>0.2666308879852295</left_val>
            <right_val>-0.0835933163762093</right_val></_></_></trees>
      <stage_threshold>-0.8590059876441956</stage_threshold>
      <parent>5</parent>
      <next>-1</next></_>
    <_>
      <trees>
        <_>
          <_>
            <feature>
              <rects>
                <_>
                  1 20 18 4 -1.</_>
                <_>
                  1 22 18 2 2.</_></rects>
              <tilted>0</tilted></feature>
            <threshold>0.0131651200354099</threshold>
            <left_val>-0.2546594142913818</left_val>
            <right_val>0.3412140011787415</right_val></_></_>
        <_>
          <_>
            <feature>
              <rects>
                <_>
                  12 10 1 12 -1.</_>
                <_>
                  9 13 1 6 2.</_></rects>
              <tilted>1</tilted></feature>
            <threshold>-0.0125106303021312</threshold>
            <left_val>0.1740182042121887</left_val>
            <right_val>-0.0942885130643845</right_val></_></_>
        <_>
          <_>
            <feature>
              <rects>
                <_>
                  4 2 6 6 -1.</_>
                <_>
                  4 2 3 3 2.</_>
                <_>
                  7 5 3 3 2.</_></rects>
              <tilted>0</tilted></feature>
            <threshold>6.6639198921620846e-003</threshold>
            <left_val>-0.1753032058477402</left_val>
            <right_val>0.3579162955284119</right_val></_></_>
        <_>
          <_>
            <feature>
              <rects>
                <_>
                  12 10 1 12 -1.</_>
                <_>
                  9 13 1 6 2.</_></rects>
              <tilted>1</tilted></feature>
            <threshold>0.0160418208688498</threshold>
            <left_val>-0.0284282304346561</left_val>
            <right_val>0.3302300870418549</right_val></_></_>
        <_>
          <_>
            <feature>
              <rects>
                <_>
                  12 10 12 1 -1.</_>
                <_>
                  15 13 6 1 2.</_></rects>
              <tilted>1</tilted></feature>
            <threshold>-0.0111259100958705</threshold>
            <left_val>0.3329066932201386</left_val>
            <right_val>-0.1857993006706238</right_val></_></_>
        <_>
          <_>
            <feature>
              <rects>
                <_>
                  12 0 3 10 -1.</_>
                <_>
                  13 1 1 10 3.</_></rects>
              <tilted>1</tilted></feature>
            <threshold>-0.0260711498558521</threshold>
            <left_val>0.5927438735961914</left_val>
            <right_val>-0.0446308702230453</right_val></_></_>
        <_>
          <_>
            <feature>
              <rects>
                <_>
                  12 0 10 3 -1.</_>
                <_>
                  11 1 10 1 3.</_></rects>
              <tilted>1</tilted></feature>
            <threshold>-9.5457509160041809e-003</threshold>
            <left_val>0.3690117001533508</left_val>
            <right_val>-0.1413192003965378</right_val></_></_>
        <_>
          <_>
            <feature>
              <rects>
                <_>
                  1 0 22 6 -1.</_>
                <_>
                  1 3 22 3 2.</_></rects>
              <tilted>0</tilted></feature>
            <threshold>-0.0221075899899006</threshold>
            <left_val>0.2142020016908646</left_val>
            <right_val>-0.2294830977916718</right_val></_></_>
        <_>
          <_>
            <feature>
              <rects>
                <_>
                  0 0 6 3 -1.</_>
                <_>
                  0 1 6 1 3.</_></rects>
              <tilted>0</tilted></feature>
            <threshold>3.0292219016700983e-003</threshold>
            <left_val>0.1471568942070007</left_val>
            <right_val>-0.4476267099380493</right_val></_></_>
        <_>
          <_>
            <feature>
              <rects>
                <_>
                  9 10 9 6 -1.</_>
                <_>
                  9 12 9 2 3.</_></rects>
              <tilted>0</tilted></feature>
            <threshold>-0.0145708499476314</threshold>
            <left_val>0.4041709899902344</left_val>
            <right_val>-0.0951252728700638</right_val></_></_>
        <_>
          <_>
            <feature>
              <rects>
                <_>
                  0 0 2 3 -1.</_>
                <_>
                  0 1 2 1 3.</_></rects>
              <tilted>0</tilted></feature>
            <threshold>-4.2334679164923728e-004</threshold>
            <left_val>-0.3501195907592773</left_val>
            <right_val>0.1419263929128647</right_val></_></_>
        <_>
          <_>
            <feature>
              <rects>
                <_>
                  10 20 10 4 -1.</_>
                <_>
                  10 22 10 2 2.</_></rects>
              <tilted>0</tilted></feature>
            <threshold>-0.0105601800605655</threshold>
            <left_val>0.2713198065757752</left_val>
            <right_val>-0.0389057882130146</right_val></_></_>
        <_>
          <_>
            <feature>
              <rects>
                <_>
                  5 3 4 4 -1.</_>
                <_>
                  6 4 2 4 2.</_></rects>
              <tilted>1</tilted></feature>
            <threshold>9.0329628437757492e-003</threshold>
            <left_val>-0.0999839380383492</left_val>
            <right_val>0.4734528958797455</right_val></_></_>
        <_>
          <_>
            <feature>
              <rects>
                <_>
                  15 8 9 7 -1.</_>
                <_>
                  18 8 3 7 3.</_></rects>
              <tilted>0</tilted></feature>
            <threshold>-0.0334996692836285</threshold>
            <left_val>0.3932037055492401</left_val>
            <right_val>-0.1021175980567932</right_val></_></_>
        <_>
          <_>
            <feature>
              <rects>
                <_>
                  0 4 6 8 -1.</_>
                <_>
                  3 4 3 8 2.</_></rects>
              <tilted>0</tilted></feature>
            <threshold>-0.0171869006007910</threshold>
            <left_val>0.2983854115009308</left_val>
            <right_val>-0.1729272007942200</right_val></_></_>
        <_>
          <_>
            <feature>
              <rects>
                <_>
                  14 2 10 3 -1.</_>
                <_>
                  13 3 10 1 3.</_></rects>
              <tilted>1</tilted></feature>
            <threshold>9.5582930371165276e-003</threshold>
            <left_val>-0.0858546793460846</left_val>
            <right_val>0.3096368908882141</right_val></_></_>
        <_>
          <_>
            <feature>
              <rects>
                <_>
                  10 2 3 10 -1.</_>
                <_>
                  11 3 1 10 3.</_></rects>
              <tilted>1</tilted></feature>
            <threshold>3.8184260483831167e-003</threshold>
            <left_val>-0.1910548061132431</left_val>
            <right_val>0.2798035144805908</right_val></_></_>
        <_>
          <_>
            <feature>
              <rects>
                <_>
                  22 20 2 4 -1.</_>
                <_>
                  22 20 1 4 2.</_></rects>
              <tilted>0</tilted></feature>
            <threshold>1.1503839632496238e-003</threshold>
            <left_val>0.0894002169370651</left_val>
            <right_val>-0.3040499985218048</right_val></_></_>
        <_>
          <_>
            <feature>
              <rects>
                <_>
                  0 20 2 2 -1.</_>
                <_>
                  1 20 1 2 2.</_></rects>
              <tilted>0</tilted></feature>
            <threshold>5.4008269216865301e-004</threshold>
            <left_val>0.1109082996845245</left_val>
            <right_val>-0.4134073853492737</right_val></_></_>
        <_>
          <_>
            <feature>
              <rects>
                <_>
                  17 3 6 4 -1.</_>
                <_>
                  20 3 3 2 2.</_>
                <_>
                  17 5 3 2 2.</_></rects>
              <tilted>0</tilted></feature>
            <threshold>3.3843850251287222e-003</threshold>
            <left_val>-0.0762148126959801</left_val>
            <right_val>0.2166659981012344</right_val></_></_>
        <_>
          <_>
            <feature>
              <rects>
                <_>
                  12 4 12 4 -1.</_>
                <_>
                  11 5 12 2 2.</_></rects>
              <tilted>1</tilted></feature>
            <threshold>-0.0232836902141571</threshold>
            <left_val>0.5959355831146240</left_val>
            <right_val>-0.0811905786395073</right_val></_></_>
        <_>
          <_>
            <feature>
              <rects>
                <_>
                  4 20 16 4 -1.</_>
                <_>
                  12 20 8 2 2.</_>
                <_>
                  4 22 8 2 2.</_></rects>
              <tilted>0</tilted></feature>
            <threshold>-6.8060671910643578e-003</threshold>
            <left_val>0.3143449127674103</left_val>
            <right_val>-0.1463471055030823</right_val></_></_>
        <_>
          <_>
            <feature>
              <rects>
                <_>
                  0 1 2 1 -1.</_>
                <_>
                  1 1 1 1 2.</_></rects>
              <tilted>0</tilted></feature>
            <threshold>-1.0514629539102316e-003</threshold>
            <left_val>-0.5920435190200806</left_val>
            <right_val>0.0949569717049599</right_val></_></_>
        <_>
          <_>
            <feature>
              <rects>
                <_>
                  20 22 3 1 -1.</_>
                <_>
                  21 22 1 1 3.</_></rects>
              <tilted>0</tilted></feature>
            <threshold>-8.1599660916253924e-004</threshold>
            <left_val>-0.3427715003490448</left_val>
            <right_val>0.0607053600251675</right_val></_></_>
        <_>
          <_>
            <feature>
              <rects>
                <_>
                  12 5 12 6 -1.</_>
                <_>
                  16 9 4 6 3.</_></rects>
              <tilted>1</tilted></feature>
            <threshold>0.0788963884115219</threshold>
            <left_val>-0.1033497005701065</left_val>
            <right_val>0.4578653872013092</right_val></_></_>
        <_>
          <_>
            <feature>
              <rects>
                <_>
                  10 8 11 8 -1.</_>
                <_>
                  10 12 11 4 2.</_></rects>
              <tilted>0</tilted></feature>
            <threshold>-6.8923081271350384e-003</threshold>
            <left_val>0.1337088942527771</left_val>
            <right_val>-0.1079474017024040</right_val></_></_>
        <_>
          <_>
            <feature>
              <rects>
                <_>
                  0 13 1 3 -1.</_>
                <_>
                  0 14 1 1 3.</_></rects>
              <tilted>0</tilted></feature>
            <threshold>-4.0193161112256348e-004</threshold>
            <left_val>-0.3643769919872284</left_val>
            <right_val>0.1265631020069122</right_val></_></_>
        <_>
          <_>
            <feature>
              <rects>
                <_>
                  21 6 2 6 -1.</_>
                <_>
                  22 6 1 3 2.</_>
                <_>
                  21 9 1 3 2.</_></rects>
              <tilted>0</tilted></feature>
            <threshold>-3.1624529510736465e-003</threshold>
            <left_val>0.2532348036766052</left_val>
            <right_val>-0.0502332486212254</right_val></_></_>
        <_>
          <_>
            <feature>
              <rects>
                <_>
                  3 8 6 16 -1.</_>
                <_>
                  3 8 3 8 2.</_>
                <_>
                  6 16 3 8 2.</_></rects>
              <tilted>0</tilted></feature>
            <threshold>-0.0275362506508827</threshold>
            <left_val>0.3524169027805328</left_val>
            <right_val>-0.1357381045818329</right_val></_></_>
        <_>
          <_>
            <feature>
              <rects>
                <_>
                  15 11 4 5 -1.</_>
                <_>
                  16 12 2 5 2.</_></rects>
              <tilted>1</tilted></feature>
            <threshold>-0.0144681502133608</threshold>
            <left_val>0.4633075892925263</left_val>
            <right_val>-0.0586596913635731</right_val></_></_>
        <_>
          <_>
            <feature>
              <rects>
                <_>
                  4 23 3 1 -1.</_>
                <_>
                  5 23 1 1 3.</_></rects>
              <tilted>0</tilted></feature>
            <threshold>-1.2225239770486951e-003</threshold>
            <left_val>-0.4509522914886475</left_val>
            <right_val>0.1010755971074104</right_val></_></_>
        <_>
          <_>
            <feature>
              <rects>
                <_>
                  9 11 7 6 -1.</_>
                <_>
                  9 14 7 3 2.</_></rects>
              <tilted>0</tilted></feature>
            <threshold>0.0248522702604532</threshold>
            <left_val>-0.0690462365746498</left_val>
            <right_val>0.4351756870746613</right_val></_></_>
        <_>
          <_>
            <feature>
              <rects>
                <_>
                  11 7 1 6 -1.</_>
                <_>
                  11 7 1 3 2.</_></rects>
              <tilted>1</tilted></feature>
            <threshold>1.5300279483199120e-003</threshold>
            <left_val>-0.2058988958597183</left_val>
            <right_val>0.2371519953012466</right_val></_></_>
        <_>
          <_>
            <feature>
              <rects>
                <_>
                  13 1 5 4 -1.</_>
                <_>
                  12 2 5 2 2.</_></rects>
              <tilted>1</tilted></feature>
            <threshold>-0.0146629698574543</threshold>
            <left_val>0.3642360866069794</left_val>
            <right_val>-0.0553629882633686</right_val></_></_></trees>
      <stage_threshold>-0.8799939155578613</stage_threshold>
      <parent>6</parent>
      <next>-1</next></_>
    <_>
      <trees>
        <_>
          <_>
            <feature>
              <rects>
                <_>
                  8 7 16 1 -1.</_>
                <_>
                  12 11 8 1 2.</_></rects>
              <tilted>1</tilted></feature>
            <threshold>-0.0111049497500062</threshold>
            <left_val>0.2468153983354569</left_val>
            <right_val>-0.2569181025028229</right_val></_></_>
        <_>
          <_>
            <feature>
              <rects>
                <_>
                  15 11 9 9 -1.</_>
                <_>
                  18 11 3 9 3.</_></rects>
              <tilted>0</tilted></feature>
            <threshold>-0.0140354102477431</threshold>
            <left_val>0.2687216997146606</left_val>
            <right_val>-0.2149820029735565</right_val></_></_>
        <_>
          <_>
            <feature>
              <rects>
                <_>
                  0 11 9 9 -1.</_>
                <_>
                  3 11 3 9 3.</_></rects>
              <tilted>0</tilted></feature>
            <threshold>-0.0104506099596620</threshold>
            <left_val>0.2119351029396057</left_val>
            <right_val>-0.2340303063392639</right_val></_></_>
        <_>
          <_>
            <feature>
              <rects>
                <_>
                  4 1 20 11 -1.</_>
                <_>
                  9 1 10 11 2.</_></rects>
              <tilted>0</tilted></feature>
            <threshold>-0.1011606976389885</threshold>
            <left_val>0.1998382955789566</left_val>
            <right_val>-0.0617094412446022</right_val></_></_>
        <_>
          <_>
            <feature>
              <rects>
                <_>
                  6 4 6 11 -1.</_>
                <_>
                  9 4 3 11 2.</_></rects>
              <tilted>0</tilted></feature>
            <threshold>0.0137056903913617</threshold>
            <left_val>-0.1447844952344894</left_val>
            <right_val>0.3053177893161774</right_val></_></_>
        <_>
          <_>
            <feature>
              <rects>
                <_>
                  7 3 15 15 -1.</_>
                <_>
                  12 3 5 15 3.</_></rects>
              <tilted>0</tilted></feature>
            <threshold>-0.2967945039272308</threshold>
            <left_val>-0.8792443871498108</left_val>
            <right_val>0.0511348582804203</right_val></_></_>
        <_>
          <_>
            <feature>
              <rects>
                <_>
                  2 3 15 15 -1.</_>
                <_>
                  7 3 5 15 3.</_></rects>
              <tilted>0</tilted></feature>
            <threshold>-0.0652404129505157</threshold>
            <left_val>0.3955483138561249</left_val>
            <right_val>-0.1232699006795883</right_val></_></_>
        <_>
          <_>
            <feature>
              <rects>
                <_>
                  19 23 4 1 -1.</_>
                <_>
                  20 23 2 1 2.</_></rects>
              <tilted>0</tilted></feature>
            <threshold>7.4282678542658687e-004</threshold>
            <left_val>0.0821040868759155</left_val>
            <right_val>-0.3487378060817719</right_val></_></_>
        <_>
          <_>
            <feature>
              <rects>
                <_>
                  10 0 3 1 -1.</_>
                <_>
                  11 0 1 1 3.</_></rects>
              <tilted>0</tilted></feature>
            <threshold>-9.0844521764665842e-004</threshold>
            <left_val>-0.4735401868820190</left_val>
            <right_val>0.1105305999517441</right_val></_></_>
        <_>
          <_>
            <feature>
              <rects>
                <_>
                  7 9 12 2 -1.</_>
                <_>
                  7 10 12 1 2.</_></rects>
              <tilted>0</tilted></feature>
            <threshold>5.2427902119234204e-004</threshold>
            <left_val>-0.1564372926950455</left_val>
            <right_val>0.1360321044921875</right_val></_></_>
        <_>
          <_>
            <feature>
              <rects>
                <_>
                  12 4 6 6 -1.</_>
                <_>
                  12 4 3 6 2.</_></rects>
              <tilted>1</tilted></feature>
            <threshold>0.0342185311019421</threshold>
            <left_val>-0.1580540984869003</left_val>
            <right_val>0.2764610052108765</right_val></_></_>
        <_>
          <_>
            <feature>
              <rects>
                <_>
                  9 0 6 6 -1.</_>
                <_>
                  9 2 6 2 3.</_></rects>
              <tilted>0</tilted></feature>
            <threshold>-0.0206274408847094</threshold>
            <left_val>0.4765253961086273</left_val>
            <right_val>-0.0795306563377380</right_val></_></_>
        <_>
          <_>
            <feature>
              <rects>
                <_>
                  1 2 2 3 -1.</_>
                <_>
                  1 3 2 1 3.</_></rects>
              <tilted>0</tilted></feature>
            <threshold>-1.6836409922689199e-003</threshold>
            <left_val>-0.4637182056903839</left_val>
            <right_val>0.0870705470442772</right_val></_></_>
        <_>
          <_>
            <feature>
              <rects>
                <_>
                  21 15 3 6 -1.</_>
                <_>
                  21 15 3 3 2.</_></rects>
              <tilted>1</tilted></feature>
            <threshold>0.0237033702433109</threshold>
            <left_val>0.0424006208777428</left_val>
            <right_val>-0.2926777899265289</right_val></_></_>
        <_>
          <_>
            <feature>
              <rects>
                <_>
                  3 13 8 3 -1.</_>
                <_>
                  3 13 4 3 2.</_></rects>
              <tilted>1</tilted></feature>
            <threshold>0.0644823312759399</threshold>
            <left_val>0.0542157404124737</left_val>
            <right_val>-0.7983481287956238</right_val></_></_>
        <_>
          <_>
            <feature>
              <rects>
                <_>
                  20 15 2 3 -1.</_>
                <_>
                  20 16 2 1 3.</_></rects>
              <tilted>0</tilted></feature>
            <threshold>2.9997080564498901e-003</threshold>
            <left_val>0.0263275392353535</left_val>
            <right_val>-0.4263953864574432</right_val></_></_>
        <_>
          <_>
            <feature>
              <rects>
                <_>
                  2 15 2 3 -1.</_>
                <_>
                  2 16 2 1 3.</_></rects>
              <tilted>0</tilted></feature>
            <threshold>2.1963249891996384e-003</threshold>
            <left_val>0.0717154070734978</left_val>
            <right_val>-0.5516111254692078</right_val></_></_>
        <_>
          <_>
            <feature>
              <rects>
                <_>
                  15 6 9 18 -1.</_>
                <_>
                  15 12 9 6 3.</_></rects>
              <tilted>0</tilted></feature>
            <threshold>0.1160741001367569</threshold>
            <left_val>0.0448809601366520</left_val>
            <right_val>-0.4376296997070313</right_val></_></_>
        <_>
          <_>
            <feature>
              <rects>
                <_>
                  0 6 13 18 -1.</_>
                <_>
                  0 12 13 6 3.</_></rects>
              <tilted>0</tilted></feature>
            <threshold>-0.2332289069890976</threshold>
            <left_val>-0.6726148128509522</left_val>
            <right_val>0.0664855912327766</right_val></_></_>
        <_>
          <_>
            <feature>
              <rects>
                <_>
                  22 12 2 8 -1.</_>
                <_>
                  22 16 2 4 2.</_></rects>
              <tilted>0</tilted></feature>
            <threshold>-0.0137554602697492</threshold>
            <left_val>-0.4429697096347809</left_val>
            <right_val>0.0327340289950371</right_val></_></_>
        <_>
          <_>
            <feature>
              <rects>
                <_>
                  11 12 5 6 -1.</_>
                <_>
                  9 14 5 2 3.</_></rects>
              <tilted>1</tilted></feature>
            <threshold>-0.0322601087391377</threshold>
            <left_val>0.4259017109870911</left_val>
            <right_val>-0.0950296074151993</right_val></_></_>
        <_>
          <_>
            <feature>
              <rects>
                <_>
                  15 7 4 8 -1.</_>
                <_>
                  16 8 2 8 2.</_></rects>
              <tilted>1</tilted></feature>
            <threshold>-5.0622089765965939e-003</threshold>
            <left_val>0.1730355024337769</left_val>
            <right_val>-0.1213238984346390</right_val></_></_>
        <_>
          <_>
            <feature>
              <rects>
                <_>
                  9 7 8 4 -1.</_>
                <_>
                  8 8 8 2 2.</_></rects>
              <tilted>1</tilted></feature>
            <threshold>-0.0194609109312296</threshold>
            <left_val>0.6394312977790833</left_val>
            <right_val>-0.0751551836729050</right_val></_></_>
        <_>
          <_>
            <feature>
              <rects>
                <_>
                  15 4 8 1 -1.</_>
                <_>
                  15 4 4 1 2.</_></rects>
              <tilted>1</tilted></feature>
            <threshold>-0.0263787098228931</threshold>
            <left_val>-0.6472834944725037</left_val>
            <right_val>0.0257583800703287</right_val></_></_>
        <_>
          <_>
            <feature>
              <rects>
                <_>
                  9 4 1 8 -1.</_>
                <_>
                  9 4 1 4 2.</_></rects>
              <tilted>1</tilted></feature>
            <threshold>0.0188907198607922</threshold>
            <left_val>0.0699333325028419</left_val>
            <right_val>-0.6123926043510437</right_val></_></_>
        <_>
          <_>
            <feature>
              <rects>
                <_>
                  22 12 2 8 -1.</_>
                <_>
                  22 16 2 4 2.</_></rects>
              <tilted>0</tilted></feature>
            <threshold>-1.9323499873280525e-003</threshold>
            <left_val>-0.0909439772367477</left_val>
            <right_val>0.0412910096347332</right_val></_></_>
        <_>
          <_>
            <feature>
              <rects>
                <_>
                  10 0 3 1 -1.</_>
                <_>
                  11 0 1 1 3.</_></rects>
              <tilted>0</tilted></feature>
            <threshold>6.1502389144152403e-004</threshold>
            <left_val>0.1108262985944748</left_val>
            <right_val>-0.3946261107921600</right_val></_></_>
        <_>
          <_>
            <feature>
              <rects>
                <_>
                  22 0 2 20 -1.</_>
                <_>
                  22 0 1 20 2.</_></rects>
              <tilted>0</tilted></feature>
            <threshold>-9.5665883272886276e-003</threshold>
            <left_val>0.2573749125003815</left_val>
            <right_val>-0.0789002999663353</right_val></_></_>
        <_>
          <_>
            <feature>
              <rects>
                <_>
                  0 0 2 20 -1.</_>
                <_>
                  1 0 1 20 2.</_></rects>
              <tilted>0</tilted></feature>
            <threshold>-7.1840411983430386e-003</threshold>
            <left_val>0.3123685121536255</left_val>
            <right_val>-0.1510320007801056</right_val></_></_>
        <_>
          <_>
            <feature>
              <rects>
                <_>
                  20 22 3 1 -1.</_>
                <_>
                  21 22 1 1 3.</_></rects>
              <tilted>0</tilted></feature>
            <threshold>2.5386000052094460e-003</threshold>
            <left_val>0.0339586809277534</left_val>
            <right_val>-0.4654583930969238</right_val></_></_>
        <_>
          <_>
            <feature>
              <rects>
                <_>
                  1 22 3 1 -1.</_>
                <_>
                  2 22 1 1 3.</_></rects>
              <tilted>0</tilted></feature>
            <threshold>-5.9157190844416618e-004</threshold>
            <left_val>-0.4027628898620606</left_val>
            <right_val>0.1217363998293877</right_val></_></_>
        <_>
          <_>
            <feature>
              <rects>
                <_>
                  22 12 2 8 -1.</_>
                <_>
                  22 16 2 4 2.</_></rects>
              <tilted>0</tilted></feature>
            <threshold>-0.0406513214111328</threshold>
            <left_val>1.</left_val>
            <right_val>-0.0119674401357770</right_val></_></_>
        <_>
          <_>
            <feature>
              <rects>
                <_>
                  0 12 2 8 -1.</_>
                <_>
                  0 16 2 4 2.</_></rects>
              <tilted>0</tilted></feature>
            <threshold>-6.9298068992793560e-003</threshold>
            <left_val>-0.4552743136882782</left_val>
            <right_val>0.1048931032419205</right_val></_></_>
        <_>
          <_>
            <feature>
              <rects>
                <_>
                  16 4 6 4 -1.</_>
                <_>
                  19 4 3 2 2.</_>
                <_>
                  16 6 3 2 2.</_></rects>
              <tilted>0</tilted></feature>
            <threshold>1.9796069245785475e-003</threshold>
            <left_val>-0.0851965323090553</left_val>
            <right_val>0.1353359967470169</right_val></_></_>
        <_>
          <_>
            <feature>
              <rects>
                <_>
                  3 0 3 1 -1.</_>
                <_>
                  4 0 1 1 3.</_></rects>
              <tilted>0</tilted></feature>
            <threshold>-6.0741457855328918e-004</threshold>
            <left_val>-0.4490469992160797</left_val>
            <right_val>0.0954151004552841</right_val></_></_></trees>
      <stage_threshold>-0.8636236786842346</stage_threshold>
      <parent>7</parent>
      <next>-1</next></_>
    <_>
      <trees>
        <_>
          <_>
            <feature>
              <rects>
                <_>
                  0 18 11 6 -1.</_>
                <_>
                  0 21 11 3 2.</_></rects>
              <tilted>0</tilted></feature>
            <threshold>0.0191659294068813</threshold>
            <left_val>-0.1742465049028397</left_val>
            <right_val>0.2944998145103455</right_val></_></_>
        <_>
          <_>
            <feature>
              <rects>
                <_>
                  7 0 12 2 -1.</_>
                <_>
                  10 0 6 2 2.</_></rects>
              <tilted>0</tilted></feature>
            <threshold>0.0101917600259185</threshold>
            <left_val>0.0732668265700340</left_val>
            <right_val>-0.3353675007820129</right_val></_></_>
        <_>
          <_>
            <feature>
              <rects>
                <_>
                  0 22 2 2 -1.</_>
                <_>
                  1 22 1 2 2.</_></rects>
              <tilted>0</tilted></feature>
            <threshold>6.3263572519645095e-004</threshold>
            <left_val>0.1028480976819992</left_val>
            <right_val>-0.3893634974956513</right_val></_></_>
        <_>
          <_>
            <feature>
              <rects>
                <_>
                  13 0 6 2 -1.</_>
                <_>
                  15 0 2 2 3.</_></rects>
              <tilted>0</tilted></feature>
            <threshold>-2.5520420167595148e-003</threshold>
            <left_val>-0.2026616036891937</left_val>
            <right_val>0.0975451767444611</right_val></_></_>
        <_>
          <_>
            <feature>
              <rects>
                <_>
                  5 0 6 2 -1.</_>
                <_>
                  7 0 2 2 3.</_></rects>
              <tilted>0</tilted></feature>
            <threshold>8.4101855754852295e-003</threshold>
            <left_val>0.0941352695226669</left_val>
            <right_val>-0.7355651855468750</right_val></_></_>
        <_>
          <_>
            <feature>
              <rects>
                <_>
                  8 4 9 18 -1.</_>
                <_>
                  8 13 9 9 2.</_></rects>
              <tilted>0</tilted></feature>
            <threshold>-0.0781060680747032</threshold>
            <left_val>0.2023358047008514</left_val>
            <right_val>-0.1468971073627472</right_val></_></_>
        <_>
          <_>
            <feature>
              <rects>
                <_>
                  4 6 3 12 -1.</_>
                <_>
                  5 6 1 12 3.</_></rects>
              <tilted>0</tilted></feature>
            <threshold>6.4188512042164803e-003</threshold>
            <left_val>-0.0956765636801720</left_val>
            <right_val>0.4196715056896210</right_val></_></_>
        <_>
          <_>
            <feature>
              <rects>
                <_>
                  1 0 23 6 -1.</_>
                <_>
                  1 3 23 3 2.</_></rects>
              <tilted>0</tilted></feature>
            <threshold>-0.0585702396929264</threshold>
            <left_val>0.2875674962997437</left_val>
            <right_val>-0.1368765980005264</right_val></_></_>
        <_>
          <_>
            <feature>
              <rects>
                <_>
                  3 0 1 2 -1.</_>
                <_>
                  3 0 1 1 2.</_></rects>
              <tilted>1</tilted></feature>
            <threshold>5.0999788800254464e-004</threshold>
            <left_val>0.1513431966304779</left_val>
            <right_val>-0.2937822043895721</right_val></_></_>
        <_>
          <_>
            <feature>
              <rects>
                <_>
                  18 12 3 1 -1.</_>
                <_>
                  19 12 1 1 3.</_></rects>
              <tilted>0</tilted></feature>
            <threshold>4.0856311097741127e-003</threshold>
            <left_val>-0.0281534604728222</left_val>
            <right_val>0.5758668780326843</right_val></_></_>
        <_>
          <_>
            <feature>
              <rects>
                <_>
                  3 12 3 1 -1.</_>
                <_>
                  4 12 1 1 3.</_></rects>
              <tilted>0</tilted></feature>
            <threshold>-1.9262679852545261e-003</threshold>
            <left_val>0.5017622709274292</left_val>
            <right_val>-0.0798811092972755</right_val></_></_>
        <_>
          <_>
            <feature>
              <rects>
                <_>
                  22 19 2 2 -1.</_>
                <_>
                  22 20 2 1 2.</_></rects>
              <tilted>0</tilted></feature>
            <threshold>-5.4310460109263659e-004</threshold>
            <left_val>-0.2555147111415863</left_val>
            <right_val>0.0892621874809265</right_val></_></_>
        <_>
          <_>
            <feature>
              <rects>
                <_>
                  0 19 2 2 -1.</_>
                <_>
                  0 20 2 1 2.</_></rects>
              <tilted>0</tilted></feature>
            <threshold>-4.0626359987072647e-004</threshold>
            <left_val>-0.3199408948421478</left_val>
            <right_val>0.1333260983228684</right_val></_></_>
        <_>
          <_>
            <feature>
              <rects>
                <_>
                  21 5 3 11 -1.</_>
                <_>
                  22 6 1 11 3.</_></rects>
              <tilted>1</tilted></feature>
            <threshold>0.0243537891656160</threshold>
            <left_val>-0.0246648192405701</left_val>
            <right_val>0.1652316004037857</right_val></_></_>
        <_>
          <_>
            <feature>
              <rects>
                <_>
                  3 5 11 3 -1.</_>
                <_>
                  2 6 11 1 3.</_></rects>
              <tilted>1</tilted></feature>
            <threshold>-0.0126336496323347</threshold>
            <left_val>0.4459474980831146</left_val>
            <right_val>-0.1012248992919922</right_val></_></_>
        <_>
          <_>
            <feature>
              <rects>
                <_>
                  17 17 3 4 -1.</_>
                <_>
                  16 18 3 2 2.</_></rects>
              <tilted>1</tilted></feature>
            <threshold>7.5287478975951672e-003</threshold>
            <left_val>0.0468361116945744</left_val>
            <right_val>-0.3384420871734619</right_val></_></_>
        <_>
          <_>
            <feature>
              <rects>
                <_>
                  7 17 4 3 -1.</_>
                <_>
                  8 18 2 3 2.</_></rects>
              <tilted>1</tilted></feature>
            <threshold>-6.4861360006034374e-003</threshold>
            <left_val>-0.4314163923263550</left_val>
            <right_val>0.0907121896743774</right_val></_></_>
        <_>
          <_>
            <feature>
              <rects>
                <_>
                  18 19 2 5 -1.</_>
                <_>
                  18 19 1 5 2.</_></rects>
              <tilted>0</tilted></feature>
            <threshold>-4.7356021241284907e-005</threshold>
            <left_val>0.1124569028615952</left_val>
            <right_val>-0.1781844943761826</right_val></_></_>
        <_>
          <_>
            <feature>
              <rects>
                <_>
                  4 2 7 4 -1.</_>
                <_>
                  4 4 7 2 2.</_></rects>
              <tilted>0</tilted></feature>
            <threshold>5.7080318219959736e-003</threshold>
            <left_val>-0.1315927952528000</left_val>
            <right_val>0.3135775923728943</right_val></_></_>
        <_>
          <_>
            <feature>
              <rects>
                <_>
                  23 2 1 10 -1.</_>
                <_>
                  23 2 1 5 2.</_></rects>
              <tilted>1</tilted></feature>
            <threshold>5.6351157836616039e-003</threshold>
            <left_val>-0.1043979972600937</left_val>
            <right_val>0.0894323885440826</right_val></_></_>
        <_>
          <_>
            <feature>
              <rects>
                <_>
                  3 2 4 2 -1.</_>
                <_>
                  3 2 4 1 2.</_></rects>
              <tilted>1</tilted></feature>
            <threshold>7.3258471675217152e-003</threshold>
            <left_val>0.0621357783675194</left_val>
            <right_val>-0.6221830248832703</right_val></_></_>
        <_>
          <_>
            <feature>
              <rects>
                <_>
                  11 3 12 6 -1.</_>
                <_>
                  17 3 6 3 2.</_>
                <_>
                  11 6 6 3 2.</_></rects>
              <tilted>0</tilted></feature>
            <threshold>-0.0639699101448059</threshold>
            <left_val>0.4954173862934113</left_val>
            <right_val>-0.0226805899292231</right_val></_></_>
        <_>
          <_>
            <feature>
              <rects>
                <_>
                  1 3 12 6 -1.</_>
                <_>
                  1 3 6 3 2.</_>
                <_>
                  7 6 6 3 2.</_></rects>
              <tilted>0</tilted></feature>
            <threshold>0.0190387498587370</threshold>
            <left_val>-0.1248331964015961</left_val>
            <right_val>0.4120644032955170</right_val></_></_>
        <_>
          <_>
            <feature>
              <rects>
                <_>
                  21 0 3 1 -1.</_>
                <_>
                  22 1 1 1 3.</_></rects>
              <tilted>1</tilted></feature>
            <threshold>-1.2140809558331966e-003</threshold>
            <left_val>-0.2915042042732239</left_val>
            <right_val>0.0872372463345528</right_val></_></_>
        <_>
          <_>
            <feature>
              <rects>
                <_>
                  3 0 1 3 -1.</_>
                <_>
                  2 1 1 1 3.</_></rects>
              <tilted>1</tilted></feature>
            <threshold>4.7176770749501884e-004</threshold>
            <left_val>0.1360898017883301</left_val>
            <right_val>-0.3294213116168976</right_val></_></_>
        <_>
          <_>
            <feature>
              <rects>
                <_>
                  20 4 3 9 -1.</_>
                <_>
                  21 4 1 9 3.</_></rects>
              <tilted>0</tilted></feature>
            <threshold>1.5832809731364250e-003</threshold>
            <left_val>-0.0745191872119904</left_val>
            <right_val>0.1253149956464768</right_val></_></_>
        <_>
          <_>
            <feature>
              <rects>
                <_>
                  1 4 3 9 -1.</_>
                <_>
                  2 4 1 9 3.</_></rects>
              <tilted>0</tilted></feature>
            <threshold>-6.8776239641010761e-003</threshold>
            <left_val>0.5301867723464966</left_val>
            <right_val>-0.0787269175052643</right_val></_></_>
        <_>
          <_>
            <feature>
              <rects>
                <_>
                  6 16 17 8 -1.</_>
                <_>
                  6 20 17 4 2.</_></rects>
              <tilted>0</tilted></feature>
            <threshold>-0.0672246962785721</threshold>
            <left_val>0.4805827140808106</left_val>
            <right_val>-0.0486003793776035</right_val></_></_>
        <_>
          <_>
            <feature>
              <rects>
                <_>
                  1 22 2 2 -1.</_>
                <_>
                  1 23 2 1 2.</_></rects>
              <tilted>0</tilted></feature>
            <threshold>-7.5407087570056319e-004</threshold>
            <left_val>-0.3824050128459930</left_val>
            <right_val>0.1060943976044655</right_val></_></_>
        <_>
          <_>
            <feature>
              <rects>
                <_>
                  13 7 4 12 -1.</_>
                <_>
                  9 11 4 4 3.</_></rects>
              <tilted>1</tilted></feature>
            <threshold>-0.0146351996809244</threshold>
            <left_val>0.1301072984933853</left_val>
            <right_val>-0.1359307020902634</right_val></_></_>
        <_>
          <_>
            <feature>
              <rects>
                <_>
                  10 0 14 1 -1.</_>
                <_>
                  10 0 7 1 2.</_></rects>
              <tilted>1</tilted></feature>
            <threshold>-0.0227646101266146</threshold>
            <left_val>-0.5250738263130188</left_val>
            <right_val>0.0780928134918213</right_val></_></_>
        <_>
          <_>
            <feature>
              <rects>
                <_>
                  9 0 8 4 -1.</_>
                <_>
                  11 0 4 4 2.</_></rects>
              <tilted>0</tilted></feature>
            <threshold>-0.0294695794582367</threshold>
            <left_val>-0.8615779876708984</left_val>
            <right_val>0.0101977502927184</right_val></_></_>
        <_>
          <_>
            <feature>
              <rects>
                <_>
                  0 3 5 3 -1.</_>
                <_>
                  0 4 5 1 3.</_></rects>
              <tilted>0</tilted></feature>
            <threshold>1.5170830301940441e-003</threshold>
            <left_val>0.1084844991564751</left_val>
            <right_val>-0.3750661015510559</right_val></_></_>
        <_>
          <_>
            <feature>
              <rects>
                <_>
                  17 4 2 2 -1.</_>
                <_>
                  18 4 1 1 2.</_>
                <_>
                  17 5 1 1 2.</_></rects>
              <tilted>0</tilted></feature>
            <threshold>7.0033088559284806e-004</threshold>
            <left_val>-0.0611463412642479</left_val>
            <right_val>0.2520751953125000</right_val></_></_>
        <_>
          <_>
            <feature>
              <rects>
                <_>
                  6 3 3 3 -1.</_>
                <_>
                  7 4 1 3 3.</_></rects>
              <tilted>1</tilted></feature>
            <threshold>-4.8222709447145462e-003</threshold>
            <left_val>0.3263849020004273</left_val>
            <right_val>-0.1194472983479500</right_val></_></_>
        <_>
          <_>
            <feature>
              <rects>
                <_>
                  8 1 9 3 -1.</_>
                <_>
                  11 1 3 3 3.</_></rects>
              <tilted>0</tilted></feature>
            <threshold>0.0384686887264252</threshold>
            <left_val>0.0214670393615961</left_val>
            <right_val>-0.7437540292739868</right_val></_></_>
        <_>
          <_>
            <feature>
              <rects>
                <_>
                  9 5 4 6 -1.</_>
                <_>
                  10 6 2 6 2.</_></rects>
              <tilted>1</tilted></feature>
            <threshold>-0.0234114509075880</threshold>
            <left_val>0.7002053856849670</left_val>
            <right_val>-0.0587869100272655</right_val></_></_>
        <_>
          <_>
            <feature>
              <rects>
                <_>
                  0 17 24 6 -1.</_>
                <_>
                  8 19 8 2 9.</_></rects>
              <tilted>0</tilted></feature>
            <threshold>-0.0842962935566902</threshold>
            <left_val>0.2010912001132965</left_val>
            <right_val>-0.2054519057273865</right_val></_></_>
        <_>
          <_>
            <feature>
              <rects>
                <_>
                  9 6 7 9 -1.</_>
                <_>
                  6 9 7 3 3.</_></rects>
              <tilted>1</tilted></feature>
            <threshold>0.0599905997514725</threshold>
            <left_val>-0.0970728620886803</left_val>
            <right_val>0.4650956988334656</right_val></_></_>
        <_>
          <_>
            <feature>
              <rects>
                <_>
                  21 12 2 6 -1.</_>
                <_>
                  21 14 2 2 3.</_></rects>
              <tilted>0</tilted></feature>
            <threshold>2.7778409421443939e-003</threshold>
            <left_val>0.0723783001303673</left_val>
            <right_val>-0.1776490062475205</right_val></_></_>
        <_>
          <_>
            <feature>
              <rects>
                <_>
                  1 12 2 6 -1.</_>
                <_>
                  1 14 2 2 3.</_></rects>
              <tilted>0</tilted></feature>
            <threshold>-7.9913232475519180e-003</threshold>
            <left_val>-0.6317682266235352</left_val>
            <right_val>0.0675522089004517</right_val></_></_></trees>
      <stage_threshold>-0.8099244236946106</stage_threshold>
      <parent>8</parent>
      <next>-1</next></_>
    <_>
      <trees>
        <_>
          <_>
            <feature>
              <rects>
                <_>
                  10 0 3 6 -1.</_>
                <_>
                  11 1 1 6 3.</_></rects>
              <tilted>1</tilted></feature>
            <threshold>-8.3158202469348907e-003</threshold>
            <left_val>0.3836202919483185</left_val>
            <right_val>-0.1245893016457558</right_val></_></_>
        <_>
          <_>
            <feature>
              <rects>
                <_>
                  14 0 10 3 -1.</_>
                <_>
                  13 1 10 1 3.</_></rects>
              <tilted>1</tilted></feature>
            <threshold>-0.0211745593696833</threshold>
            <left_val>0.5254428982734680</left_val>
            <right_val>-0.0658736005425453</right_val></_></_>
        <_>
          <_>
            <feature>
              <rects>
                <_>
                  10 0 3 10 -1.</_>
                <_>
                  11 1 1 10 3.</_></rects>
              <tilted>1</tilted></feature>
            <threshold>9.0604498982429504e-003</threshold>
            <left_val>-0.1271456927061081</left_val>
            <right_val>0.3805016875267029</right_val></_></_>
        <_>
          <_>
            <feature>
              <rects>
                <_>
                  0 12 24 12 -1.</_>
                <_>
                  0 15 24 6 2.</_></rects>
              <tilted>0</tilted></feature>
            <threshold>-0.0494593307375908</threshold>
            <left_val>0.2228631973266602</left_val>
            <right_val>-0.1613737046718597</right_val></_></_>
        <_>
          <_>
            <feature>
              <rects>
                <_>
                  8 0 4 8 -1.</_>
                <_>
                  9 1 2 8 2.</_></rects>
              <tilted>1</tilted></feature>
            <threshold>-9.6989069133996964e-003</threshold>
            <left_val>0.2439967989921570</left_val>
            <right_val>-0.1357858926057816</right_val></_></_>
        <_>
          <_>
            <feature>
              <rects>
                <_>
                  17 1 5 3 -1.</_>
                <_>
                  16 2 5 1 3.</_></rects>
              <tilted>1</tilted></feature>
            <threshold>6.9291819818317890e-003</threshold>
            <left_val>-0.0793522894382477</left_val>
            <right_val>0.2715538144111633</right_val></_></_>
        <_>
          <_>
            <feature>
              <rects>
                <_>
                  11 0 2 8 -1.</_>
                <_>
                  9 2 2 4 2.</_></rects>
              <tilted>1</tilted></feature>
            <threshold>-0.0153836896643043</threshold>
            <left_val>-0.4134826064109802</left_val>
            <right_val>0.0880072116851807</right_val></_></_>
        <_>
          <_>
            <feature>
              <rects>
                <_>
                  15 4 8 5 -1.</_>
                <_>
                  15 4 4 5 2.</_></rects>
              <tilted>0</tilted></feature>
            <threshold>-0.0177669897675514</threshold>
            <left_val>0.1491615027189255</left_val>
            <right_val>-0.0756329074501991</right_val></_></_>
        <_>
          <_>
            <feature>
              <rects>
                <_>
                  7 7 3 4 -1.</_>
                <_>
                  7 9 3 2 2.</_></rects>
              <tilted>0</tilted></feature>
            <threshold>2.4251630529761314e-003</threshold>
            <left_val>-0.1469783931970596</left_val>
            <right_val>0.2821050882339478</right_val></_></_>
        <_>
          <_>
            <feature>
              <rects>
                <_>
                  12 3 2 21 -1.</_>
                <_>
                  12 10 2 7 3.</_></rects>
              <tilted>0</tilted></feature>
            <threshold>-0.0153172798454762</threshold>
            <left_val>0.1658945977687836</left_val>
