<?xml version="1.0"?>
<opencv_storage>
<LadyBugIdentifier_xml type_id="opencv-haar-classifier">
  <size>
    20 20</size>
  <stages>
    <_>
      <!-- stage 0 -->
      <trees>
        <_>
          <!-- tree 0 -->
          <_>
            <!-- root node -->
            <feature>
              <rects>
                <_>
                  2 0 14 8 -1.</_>
                <_>
                  2 2 14 4 2.</_></rects>
              <tilted>0</tilted></feature>
            <threshold>-2.8242729604244232e-02</threshold>
            <left_val>5.8661782741546631e-01</left_val>
            <right_val>-3.4727591276168823e-01</right_val></_></_>
        <_>
          <!-- tree 1 -->
          <_>
            <!-- root node -->
            <feature>
              <rects>
                <_>
                  5 16 12 4 -1.</_>
                <_>
                  5 17 12 2 2.</_></rects>
              <tilted>0</tilted></feature>
            <threshold>-8.7208915501832962e-03</threshold>
            <left_val>6.6126900911331177e-01</left_val>
            <right_val>-2.4739409983158112e-01</right_val></_></_>
        <_>
          <!-- tree 2 -->
          <_>
            <!-- root node -->
            <feature>
              <rects>
                <_>
                  6 0 9 3 -1.</_>
                <_>
                  6 1 9 1 3.</_></rects>
              <tilted>0</tilted></feature>
            <threshold>-4.2565190233290195e-03</threshold>
            <left_val>5.9821170568466187e-01</left_val>
            <right_val>-2.2599110007286072e-01</right_val></_></_>
        <_>
          <!-- tree 3 -->
          <_>
            <!-- root node -->
            <feature>
              <rects>
                <_>
                  7 13 11 6 -1.</_>
                <_>
                  7 15 11 2 3.</_></rects>
              <tilted>0</tilted></feature>
            <threshold>-1.6185419633984566e-02</threshold>
            <left_val>5.2825278043746948e-01</left_val>
            <right_val>-2.3614080250263214e-01</right_val></_></_>
        <_>
          <!-- tree 4 -->
          <_>
            <!-- root node -->
            <feature>
              <rects>
                <_>
                  17 8 3 6 -1.</_>
                <_>
                  18 8 1 6 3.</_></rects>
              <tilted>0</tilted></feature>
            <threshold>-5.7494449429214001e-03</threshold>
            <left_val>5.4056501388549805e-01</left_val>
            <right_val>-1.6916379332542419e-01</right_val></_></_>
        <_>
          <!-- tree 5 -->
          <_>
            <!-- root node -->
            <feature>
              <rects>
                <_>
                  1 7 15 6 -1.</_>
                <_>
                  1 10 15 3 2.</_></rects>
              <tilted>0</tilted></feature>
            <threshold>3.9714168757200241e-02</threshold>
            <left_val>-1.4973269402980804e-01</left_val>
            <right_val>5.0198471546173096e-01</right_val></_></_>
        <_>
          <!-- tree 6 -->
          <_>
            <!-- root node -->
            <feature>
              <rects>
                <_>
                  3 10 7 3 -1.</_>
                <_>
                  2 11 7 1 3.</_></rects>
              <tilted>1</tilted></feature>
            <threshold>-1.6899369657039642e-02</threshold>
            <left_val>5.6303721666336060e-01</left_val>
            <right_val>-1.3775570690631866e-01</right_val></_></_>
        <_>
          <!-- tree 7 -->
          <_>
            <!-- root node -->
            <feature>
              <rects>
                <_>
                  6 2 5 4 -1.</_>
                <_>
                  6 4 5 2 2.</_></rects>
              <tilted>0</tilted></feature>
            <threshold>4.6086939983069897e-03</threshold>
            <left_val>-1.9748620688915253e-01</left_val>
            <right_val>3.7846189737319946e-01</right_val></_></_>
        <_>
          <!-- tree 8 -->
          <_>
            <!-- root node -->
            <feature>
              <rects>
                <_>
                  9 0 4 3 -1.</_>
                <_>
                  9 1 4 1 3.</_></rects>
              <tilted>0</tilted></feature>
            <threshold>5.5453642271459103e-03</threshold>
            <left_val>-9.6723482012748718e-02</left_val>
            <right_val>6.8607479333877563e-01</right_val></_></_>
        <_>
          <!-- tree 9 -->
          <_>
            <!-- root node -->
            <feature>
              <rects>
                <_>
                  14 0 6 3 -1.</_>
                <_>
                  13 1 6 1 3.</_></rects>
              <tilted>1</tilted></feature>
            <threshold>-1.2706319801509380e-02</threshold>
            <left_val>5.1478022336959839e-01</left_val>
            <right_val>-1.1654870212078094e-01</right_val></_></_>
        <_>
          <!-- tree 10 -->
          <_>
            <!-- root node -->
            <feature>
              <rects>
                <_>
                  3 13 4 3 -1.</_>
                <_>
                  2 14 4 1 3.</_></rects>
              <tilted>1</tilted></feature>
            <threshold>-5.0508370622992516e-03</threshold>
            <left_val>3.6684620380401611e-01</left_val>
            <right_val>-1.7416960000991821e-01</right_val></_></_>
        <_>
          <!-- tree 11 -->
          <_>
            <!-- root node -->
            <feature>
              <rects>
                <_>
                  0 0 6 2 -1.</_>
                <_>
                  3 0 3 2 2.</_></rects>
              <tilted>0</tilted></feature>
            <threshold>3.2036320772022009e-03</threshold>
            <left_val>1.9043579697608948e-01</left_val>
            <right_val>-3.6857220530509949e-01</right_val></_></_>
        <_>
          <!-- tree 12 -->
          <_>
            <!-- root node -->
            <feature>
              <rects>
                <_>
                  6 8 7 6 -1.</_>
                <_>
                  6 10 7 2 3.</_></rects>
              <tilted>0</tilted></feature>
            <threshold>-1.7416950315237045e-02</threshold>
            <left_val>5.1313328742980957e-01</left_val>
            <right_val>-1.5672250092029572e-01</right_val></_></_>
        <_>
          <!-- tree 13 -->
          <_>
            <!-- root node -->
            <feature>
              <rects>
                <_>
                  6 10 7 6 -1.</_>
                <_>
                  6 12 7 2 3.</_></rects>
              <tilted>0</tilted></feature>
            <threshold>-1.9254120066761971e-02</threshold>
            <left_val>5.7463687658309937e-01</left_val>
            <right_val>-9.4818882644176483e-02</right_val></_></_>
        <_>
          <!-- tree 14 -->
          <_>
            <!-- root node -->
            <feature>
              <rects>
                <_>
                  5 16 15 4 -1.</_>
                <_>
                  10 16 5 4 3.</_></rects>
              <tilted>0</tilted></feature>
            <threshold>2.0714700222015381e-02</threshold>
            <left_val>2.0388139784336090e-01</left_val>
            <right_val>-3.5785180330276489e-01</right_val></_></_>
        <_>
          <!-- tree 15 -->
          <_>
            <!-- root node -->
            <feature>
              <rects>
                <_>
                  7 0 12 10 -1.</_>
                <_>
                  11 0 4 10 3.</_></rects>
              <tilted>0</tilted></feature>
            <threshold>-1.3945339620113373e-01</threshold>
            <left_val>-8.0856829881668091e-01</left_val>
            <right_val>5.1214821636676788e-02</right_val></_></_>
        <_>
          <!-- tree 16 -->
          <_>
            <!-- root node -->
            <feature>
              <rects>
                <_>
                  0 4 4 16 -1.</_>
                <_>
                  1 4 2 16 2.</_></rects>
              <tilted>0</tilted></feature>
            <threshold>-1.1258979793637991e-03</threshold>
            <left_val>1.7679210007190704e-01</left_val>
            <right_val>-2.6749131083488464e-01</right_val></_></_>
        <_>
          <!-- tree 17 -->
          <_>
            <!-- root node -->
            <feature>
              <rects>
                <_>
                  19 2 1 3 -1.</_>
                <_>
                  18 3 1 1 3.</_></rects>
              <tilted>1</tilted></feature>
            <threshold>-2.5518399197608232e-03</threshold>
            <left_val>3.9002549648284912e-01</left_val>
            <right_val>-1.2803199887275696e-01</right_val></_></_>
        <_>
          <!-- tree 18 -->
          <_>
            <!-- root node -->
            <feature>
              <rects>
                <_>
                  8 0 12 4 -1.</_>
                <_>
                  11 0 6 4 2.</_></rects>
              <tilted>0</tilted></feature>
            <threshold>1.4924430288374424e-02</threshold>
            <left_val>1.3826459646224976e-01</left_val>
            <right_val>-3.4114089608192444e-01</right_val></_></_>
        <_>
          <!-- tree 19 -->
          <_>
            <!-- root node -->
            <feature>
              <rects>
                <_>
                  11 1 7 3 -1.</_>
                <_>
                  11 2 7 1 3.</_></rects>
              <tilted>0</tilted></feature>
            <threshold>5.7874377816915512e-03</threshold>
            <left_val>-1.0183420032262802e-01</left_val>
            <right_val>5.3868699073791504e-01</right_val></_></_>
        <_>
          <!-- tree 20 -->
          <_>
            <!-- root node -->
            <feature>
              <rects>
                <_>
                  9 2 8 16 -1.</_>
                <_>
                  9 2 4 8 2.</_>
                <_>
                  13 10 4 8 2.</_></rects>
              <tilted>0</tilted></feature>
            <threshold>7.8932449221611023e-02</threshold>
            <left_val>9.3840830028057098e-02</left_val>
            <right_val>-6.0537749528884888e-01</right_val></_></_>
        <_>
          <!-- tree 21 -->
          <_>
            <!-- root node -->
            <feature>
              <rects>
                <_>
                  7 5 11 3 -1.</_>
                <_>
                  7 6 11 1 3.</_></rects>
              <tilted>0</tilted></feature>
            <threshold>-6.4921481534838676e-03</threshold>
            <left_val>4.5391759276390076e-01</left_val>
            <right_val>-1.0718689858913422e-01</right_val></_></_>
        <_>
          <!-- tree 22 -->
          <_>
            <!-- root node -->
            <feature>
              <rects>
                <_>
                  9 6 4 3 -1.</_>
                <_>
                  8 7 4 1 3.</_></rects>
              <tilted>1</tilted></feature>
            <threshold>-6.1511448584496975e-03</threshold>
            <left_val>3.5447910428047180e-01</left_val>
            <right_val>-1.2932130694389343e-01</right_val></_></_></trees>
      <stage_threshold>-1.4780679941177368e+00</stage_threshold>
      <parent>-1</parent>
      <next>-1</next></_>
    <_>
      <!-- stage 1 -->
      <trees>
        <_>
          <!-- tree 0 -->
          <_>
            <!-- root node -->
            <feature>
              <rects>
                <_>
                  8 12 12 8 -1.</_>
                <_>
                  8 12 6 4 2.</_>
                <_>
                  14 16 6 4 2.</_></rects>
              <tilted>0</tilted></feature>
            <threshold>1.9601630046963692e-02</threshold>
            <left_val>-3.6731618642807007e-01</left_val>
            <right_val>3.6650991439819336e-01</right_val></_></_>
        <_>
          <!-- tree 1 -->
          <_>
            <!-- root node -->
            <feature>
              <rects>
                <_>
                  2 0 13 2 -1.</_>
                <_>
                  2 1 13 1 2.</_></rects>
              <tilted>0</tilted></feature>
            <threshold>-7.2349859401583672e-03</threshold>
            <left_val>4.1939568519592285e-01</left_val>
            <right_val>-2.7838289737701416e-01</right_val></_></_>
        <_>
          <!-- tree 2 -->
          <_>
            <!-- root node -->
            <feature>
              <rects>
                <_>
                  0 18 20 2 -1.</_>
                <_>
                  0 19 20 1 2.</_></rects>
              <tilted>0</tilted></feature>
            <threshold>1.0124930180609226e-02</threshold>
            <left_val>-2.2087539732456207e-01</left_val>
            <right_val>4.3514600396156311e-01</right_val></_></_>
        <_>
          <!-- tree 3 -->
          <_>
            <!-- root node -->
            <feature>
              <rects>
                <_>
                  18 3 2 13 -1.</_>
                <_>
                  19 3 1 13 2.</_></rects>
              <tilted>0</tilted></feature>
            <threshold>9.3480730429291725e-03</threshold>
            <left_val>-1.7992970347404480e-01</left_val>
            <right_val>4.4615489244461060e-01</right_val></_></_>
        <_>
          <!-- tree 4 -->
          <_>
            <!-- root node -->
            <feature>
              <rects>
                <_>
                  8 2 7 8 -1.</_>
                <_>
                  8 6 7 4 2.</_></rects>
              <tilted>0</tilted></feature>
            <threshold>1.8939819419756532e-03</threshold>
            <left_val>-3.2826340198516846e-01</left_val>
            <right_val>2.4955379962921143e-01</right_val></_></_>
        <_>
          <!-- tree 5 -->
          <_>
            <!-- root node -->
            <feature>
              <rects>
                <_>
                  4 1 3 4 -1.</_>
                <_>
                  5 2 1 4 3.</_></rects>
              <tilted>1</tilted></feature>
            <threshold>-8.9085511863231659e-03</threshold>
            <left_val>4.0844970941543579e-01</left_val>
            <right_val>-1.4203579723834991e-01</right_val></_></_>
        <_>
          <!-- tree 6 -->
          <_>
            <!-- root node -->
            <feature>
              <rects>
                <_>
                  6 1 3 5 -1.</_>
                <_>
                  7 2 1 5 3.</_></rects>
              <tilted>1</tilted></feature>
            <threshold>-8.8985031470656395e-03</threshold>
            <left_val>2.9619041085243225e-01</left_val>
            <right_val>-1.7519439756870270e-01</right_val></_></_>
        <_>
          <!-- tree 7 -->
          <_>
            <!-- root node -->
            <feature>
              <rects>
                <_>
                  11 7 2 8 -1.</_>
                <_>
                  12 7 1 8 2.</_></rects>
              <tilted>0</tilted></feature>
            <threshold>7.5772521086037159e-03</threshold>
            <left_val>-7.5955003499984741e-02</left_val>
            <right_val>5.0045609474182129e-01</right_val></_></_>
        <_>
          <!-- tree 8 -->
          <_>
            <!-- root node -->
            <feature>
              <rects>
                <_>
                  2 12 6 2 -1.</_>
                <_>
                  2 12 6 1 2.</_></rects>
              <tilted>1</tilted></feature>
            <threshold>-1.5665719285607338e-02</threshold>
            <left_val>4.0817499160766602e-01</left_val>
            <right_val>-1.1123800277709961e-01</right_val></_></_>
        <_>
          <!-- tree 9 -->
          <_>
            <!-- root node -->
            <feature>
              <rects>
                <_>
                  17 11 3 5 -1.</_>
                <_>
                  18 12 1 5 3.</_></rects>
              <tilted>1</tilted></feature>
            <threshold>1.0878950357437134e-02</threshold>
            <left_val>-7.1696341037750244e-02</left_val>
            <right_val>4.9637028574943542e-01</right_val></_></_>
        <_>
          <!-- tree 10 -->
          <_>
            <!-- root node -->
            <feature>
              <rects>
                <_>
                  16 1 4 19 -1.</_>
                <_>
                  18 1 2 19 2.</_></rects>
              <tilted>0</tilted></feature>
            <threshold>1.1519160121679306e-02</threshold>
            <left_val>-2.0540060102939606e-01</left_val>
            <right_val>2.2173300385475159e-01</right_val></_></_>
        <_>
          <!-- tree 11 -->
          <_>
            <!-- root node -->
            <feature>
              <rects>
                <_>
                  6 16 9 4 -1.</_>
                <_>
                  6 17 9 2 2.</_></rects>
              <tilted>0</tilted></feature>
            <threshold>5.7948660105466843e-03</threshold>
            <left_val>-1.3886860013008118e-01</left_val>
            <right_val>3.1114500761032104e-01</right_val></_></_>
        <_>
          <!-- tree 12 -->
          <_>
            <!-- root node -->
            <feature>
              <rects>
                <_>
                  4 13 15 6 -1.</_>
                <_>
                  4 16 15 3 2.</_></rects>
              <tilted>0</tilted></feature>
            <threshold>7.6784066855907440e-02</threshold>
            <left_val>7.8640721738338470e-02</left_val>
            <right_val>-5.5252808332443237e-01</right_val></_></_>
        <_>
          <!-- tree 13 -->
          <_>
            <!-- root node -->
            <feature>
              <rects>
                <_>
                  4 5 2 13 -1.</_>
                <_>
                  5 5 1 13 2.</_></rects>
              <tilted>0</tilted></feature>
            <threshold>1.7464420525357127e-03</threshold>
            <left_val>-1.9416190683841705e-01</left_val>
            <right_val>2.0694729685783386e-01</right_val></_></_>
        <_>
          <!-- tree 14 -->
          <_>
            <!-- root node -->
            <feature>
              <rects>
                <_>
                  2 1 14 16 -1.</_>
                <_>
                  9 1 7 16 2.</_></rects>
              <tilted>0</tilted></feature>
            <threshold>-3.2574570178985596e-01</threshold>
            <left_val>5.9276682138442993e-01</left_val>
            <right_val>-6.6882088780403137e-02</right_val></_></_>
        <_>
          <!-- tree 15 -->
          <_>
            <!-- root node -->
            <feature>
              <rects>
                <_>
                  17 8 3 8 -1.</_>
                <_>
                  18 9 1 8 3.</_></rects>
              <tilted>1</tilted></feature>
            <threshold>9.0537518262863159e-03</threshold>
            <left_val>-1.2979960441589355e-01</left_val>
            <right_val>3.1474938988685608e-01</right_val></_></_>
        <_>
          <!-- tree 16 -->
          <_>
            <!-- root node -->
            <feature>
              <rects>
                <_>
                  0 12 3 8 -1.</_>
                <_>
                  0 16 3 4 2.</_></rects>
              <tilted>0</tilted></feature>
            <threshold>8.5765728726983070e-04</threshold>
            <left_val>-2.1884959936141968e-01</left_val>
            <right_val>1.8596670031547546e-01</right_val></_></_>
        <_>
          <!-- tree 17 -->
          <_>
            <!-- root node -->
            <feature>
              <rects>
                <_>
                  18 5 2 8 -1.</_>
                <_>
                  19 5 1 8 2.</_></rects>
              <tilted>0</tilted></feature>
            <threshold>-8.6306240409612656e-03</threshold>
            <left_val>4.8444938659667969e-01</left_val>
            <right_val>-9.2793531715869904e-02</right_val></_></_>
        <_>
          <!-- tree 18 -->
          <_>
            <!-- root node -->
            <feature>
              <rects>
                <_>
                  4 9 7 3 -1.</_>
                <_>
                  3 10 7 1 3.</_></rects>
              <tilted>1</tilted></feature>
            <threshold>-2.8865169733762741e-02</threshold>
            <left_val>6.4816248416900635e-01</left_val>
            <right_val>-5.0334751605987549e-02</right_val></_></_>
        <_>
          <!-- tree 19 -->
          <_>
            <!-- root node -->
            <feature>
              <rects>
                <_>
                  10 2 2 1 -1.</_>
                <_>
                  11 2 1 1 2.</_></rects>
              <tilted>0</tilted></feature>
            <threshold>-1.1977209942415357e-03</threshold>
            <left_val>-4.4508731365203857e-01</left_val>
            <right_val>1.0176510363817215e-01</right_val></_></_>
        <_>
          <!-- tree 20 -->
          <_>
            <!-- root node -->
            <feature>
              <rects>
                <_>
                  14 0 5 4 -1.</_>
                <_>
                  13 1 5 2 2.</_></rects>
              <tilted>1</tilted></feature>
            <threshold>-1.6290999948978424e-02</threshold>
            <left_val>3.5766458511352539e-01</left_val>
            <right_val>-1.2129899859428406e-01</right_val></_></_>
        <_>
          <!-- tree 21 -->
          <_>
            <!-- root node -->
            <feature>
              <rects>
                <_>
                  9 7 4 6 -1.</_>
                <_>
                  10 8 2 6 2.</_></rects>
              <tilted>1</tilted></feature>
            <threshold>-1.4544149860739708e-02</threshold>
            <left_val>3.8255229592323303e-01</left_val>
            <right_val>-1.0255990177392960e-01</right_val></_></_>
        <_>
          <!-- tree 22 -->
          <_>
            <!-- root node -->
            <feature>
              <rects>
                <_>
                  0 17 2 3 -1.</_>
                <_>
                  1 17 1 3 2.</_></rects>
              <tilted>0</tilted></feature>
            <threshold>1.7084339633584023e-03</threshold>
            <left_val>1.0534840077161789e-01</left_val>
            <right_val>-4.0785720944404602e-01</right_val></_></_>
        <_>
          <!-- tree 23 -->
          <_>
            <!-- root node -->
            <feature>
              <rects>
                <_>
                  6 2 9 3 -1.</_>
                <_>
                  5 3 9 1 3.</_></rects>
              <tilted>1</tilted></feature>
            <threshold>-1.3997489586472511e-02</threshold>
            <left_val>3.6282649636268616e-01</left_val>
            <right_val>-1.1384569853544235e-01</right_val></_></_>
        <_>
          <!-- tree 24 -->
          <_>
            <!-- root node -->
            <feature>
              <rects>
                <_>
                  10 5 7 2 -1.</_>
                <_>
                  10 5 7 1 2.</_></rects>
              <tilted>1</tilted></feature>
            <threshold>-1.4133320190012455e-02</threshold>
            <left_val>3.9784741401672363e-01</left_val>
            <right_val>-9.8754271864891052e-02</right_val></_></_>
        <_>
          <!-- tree 25 -->
          <_>
            <!-- root node -->
            <feature>
              <rects>
                <_>
                  16 19 4 1 -1.</_>
                <_>
                  18 19 2 1 2.</_></rects>
              <tilted>0</tilted></feature>
            <threshold>-1.6625530552119017e-03</threshold>
            <left_val>-3.3606728911399841e-01</left_val>
            <right_val>1.1047600209712982e-01</right_val></_></_>
        <_>
          <!-- tree 26 -->
          <_>
            <!-- root node -->
            <feature>
              <rects>
                <_>
                  16 16 2 2 -1.</_>
                <_>
                  16 16 1 2 2.</_></rects>
              <tilted>1</tilted></feature>
            <threshold>-9.9837500602006912e-03</threshold>
            <left_val>4.8340690135955811e-01</left_val>
            <right_val>-8.4479056298732758e-02</right_val></_></_>
        <_>
          <!-- tree 27 -->
          <_>
            <!-- root node -->
            <feature>
              <rects>
                <_>
                  7 17 8 3 -1.</_>
                <_>
                  11 17 4 3 2.</_></rects>
              <tilted>0</tilted></feature>
            <threshold>-3.8717661052942276e-02</threshold>
            <left_val>-6.5799641609191895e-01</left_val>
            <right_val>6.0864850878715515e-02</right_val></_></_>
        <_>
          <!-- tree 28 -->
          <_>
            <!-- root node -->
            <feature>
              <rects>
                <_>
                  14 10 3 5 -1.</_>
                <_>
                  15 11 1 5 3.</_></rects>
              <tilted>1</tilted></feature>
            <threshold>3.1892709434032440e-02</threshold>
            <left_val>-6.1990391463041306e-02</left_val>
            <right_val>7.7558541297912598e-01</right_val></_></_>
        <_>
          <!-- tree 29 -->
          <_>
            <!-- root node -->
            <feature>
              <rects>
                <_>
                  16 0 2 8 -1.</_>
                <_>
                  16 0 1 4 2.</_>
                <_>
                  17 4 1 4 2.</_></rects>
              <tilted>0</tilted></feature>
            <threshold>-2.5434109847992659e-03</threshold>
            <left_val>2.8772988915443420e-01</left_val>
            <right_val>-1.4491449296474457e-01</right_val></_></_>
        <_>
          <!-- tree 30 -->
          <_>
            <!-- root node -->
            <feature>
              <rects>
                <_>
                  1 2 8 1 -1.</_>
                <_>
                  3 4 4 1 2.</_></rects>
              <tilted>1</tilted></feature>
            <threshold>-1.6095429891720414e-03</threshold>
            <left_val>1.6573500633239746e-01</left_val>
            <right_val>-2.2019730508327484e-01</right_val></_></_>
        <_>
          <!-- tree 31 -->
          <_>
            <!-- root node -->
            <feature>
              <rects>
                <_>
                  9 8 6 4 -1.</_>
                <_>
                  8 9 6 2 2.</_></rects>
              <tilted>1</tilted></feature>
            <threshold>-1.0230430401861668e-02</threshold>
            <left_val>3.4064981341362000e-01</left_val>
            <right_val>-1.2879070639610291e-01</right_val></_></_>
        <_>
          <!-- tree 32 -->
          <_>
            <!-- root node -->
            <feature>
              <rects>
                <_>
                  7 5 6 9 -1.</_>
                <_>
                  7 8 6 3 3.</_></rects>
              <tilted>0</tilted></feature>
            <threshold>-8.3057768642902374e-03</threshold>
            <left_val>2.3850780725479126e-01</left_val>
            <right_val>-1.7669579386711121e-01</right_val></_></_></trees>
      <stage_threshold>-1.3063759803771973e+00</stage_threshold>
      <parent>0</parent>
      <next>-1</next></_>
    <_>
      <!-- stage 2 -->
      <trees>
        <_>
          <!-- tree 0 -->
          <_>
            <!-- root node -->
            <feature>
              <rects>
                <_>
                  0 1 20 2 -1.</_>
                <_>
                  5 1 10 2 2.</_></rects>
              <tilted>0</tilted></feature>
            <threshold>-3.6369059234857559e-02</threshold>
            <left_val>4.7024041414260864e-01</left_val>
            <right_val>-2.3867860436439514e-01</right_val></_></_>
        <_>
          <!-- tree 1 -->
          <_>
            <!-- root node -->
            <feature>
              <rects>
                <_>
                  0 3 2 13 -1.</_>
                <_>
                  1 3 1 13 2.</_></rects>
              <tilted>0</tilted></feature>
            <threshold>-1.0657779872417450e-02</threshold>
            <left_val>4.4022938609123230e-01</left_val>
            <right_val>-1.9028660655021667e-01</right_val></_></_>
        <_>
          <!-- tree 2 -->
          <_>
            <!-- root node -->
            <feature>
              <rects>
                <_>
                  14 2 6 6 -1.</_>
                <_>
                  14 2 6 3 2.</_></rects>
              <tilted>1</tilted></feature>
            <threshold>-1.2441609986126423e-02</threshold>
            <left_val>2.6764321327209473e-01</left_val>
            <right_val>-3.0138981342315674e-01</right_val></_></_>
        <_>
          <!-- tree 3 -->
          <_>
            <!-- root node -->
            <feature>
              <rects>
                <_>
                  0 17 20 2 -1.</_>
                <_>
                  5 17 10 2 2.</_></rects>
              <tilted>0</tilted></feature>
            <threshold>-2.7879420667886734e-02</threshold>
            <left_val>3.4836569428443909e-01</left_val>
            <right_val>-2.1302230656147003e-01</right_val></_></_>
        <_>
          <!-- tree 4 -->
          <_>
            <!-- root node -->
            <feature>
              <rects>
                <_>
                  1 18 1 2 -1.</_>
                <_>
                  1 19 1 1 2.</_></rects>
              <tilted>0</tilted></feature>
            <threshold>-1.1853789910674095e-03</threshold>
            <left_val>-5.3962582349777222e-01</left_val>
            <right_val>1.2994989752769470e-01</right_val></_></_>
        <_>
          <!-- tree 5 -->
          <_>
            <!-- root node -->
            <feature>
              <rects>
                <_>
                  3 10 1 3 -1.</_>
                <_>
                  3 11 1 1 3.</_></rects>
              <tilted>0</tilted></feature>
            <threshold>-1.2670389842242002e-03</threshold>
            <left_val>-4.3604668974876404e-01</left_val>
            <right_val>1.5873329341411591e-01</right_val></_></_>
        <_>
          <!-- tree 6 -->
          <_>
            <!-- root node -->
            <feature>
              <rects>
                <_>
                  3 10 1 3 -1.</_>
                <_>
                  3 11 1 1 3.</_></rects>
              <tilted>0</tilted></feature>
            <threshold>1.4098220271989703e-03</threshold>
            <left_val>1.7080070078372955e-01</left_val>
            <right_val>-4.8178839683532715e-01</right_val></_></_>
        <_>
          <!-- tree 7 -->
          <_>
            <!-- root node -->
            <feature>
              <rects>
                <_>
                  19 16 1 4 -1.</_>
                <_>
                  19 18 1 2 2.</_></rects>
              <tilted>0</tilted></feature>
            <threshold>-2.2747360635548830e-03</threshold>
            <left_val>-5.0323647260665894e-01</left_val>
            <right_val>1.2147580087184906e-01</right_val></_></_>
        <_>
          <!-- tree 8 -->
          <_>
            <!-- root node -->
            <feature>
              <rects>
                <_>
                  19 8 1 3 -1.</_>
                <_>
                  19 9 1 1 3.</_></rects>
              <tilted>0</tilted></feature>
            <threshold>-2.6258109137415886e-03</threshold>
            <left_val>-6.1993622779846191e-01</left_val>
            <right_val>9.8091490566730499e-02</right_val></_></_>
        <_>
          <!-- tree 9 -->
          <_>
            <!-- root node -->
            <feature>
              <rects>
                <_>
                  17 8 3 3 -1.</_>
                <_>
                  17 9 3 1 3.</_></rects>
              <tilted>0</tilted></feature>
            <threshold>3.2510568853467703e-03</threshold>
            <left_val>1.1687520146369934e-01</left_val>
            <right_val>-4.5047411322593689e-01</right_val></_></_>
        <_>
          <!-- tree 10 -->
          <_>
            <!-- root node -->
            <feature>
              <rects>
                <_>
                  17 8 1 3 -1.</_>
                <_>
                  17 9 1 1 3.</_></rects>
              <tilted>0</tilted></feature>
            <threshold>-1.2634469894692302e-03</threshold>
            <left_val>-4.3439370393753052e-01</left_val>
            <right_val>1.4439409971237183e-01</right_val></_></_>
        <_>
          <!-- tree 11 -->
          <_>
            <!-- root node -->
            <feature>
              <rects>
                <_>
                  18 5 2 11 -1.</_>
                <_>
                  19 5 1 11 2.</_></rects>
              <tilted>0</tilted></feature>
            <threshold>1.1990860104560852e-02</threshold>
            <left_val>-1.4033949375152588e-01</left_val>
            <right_val>4.6072459220886230e-01</right_val></_></_>
        <_>
          <!-- tree 12 -->
          <_>
            <!-- root node -->
            <feature>
              <rects>
                <_>
                  2 3 14 14 -1.</_>
                <_>
                  9 3 7 14 2.</_></rects>
              <tilted>0</tilted></feature>
            <threshold>2.3884199559688568e-01</threshold>
            <left_val>-9.9562242627143860e-02</left_val>
            <right_val>6.1463242769241333e-01</right_val></_></_>
        <_>
          <!-- tree 13 -->
          <_>
            <!-- root node -->
            <feature>
              <rects>
                <_>
                  19 0 1 2 -1.</_>
                <_>
                  19 1 1 1 2.</_></rects>
              <tilted>0</tilted></feature>
            <threshold>8.8920228881761432e-04</threshold>
            <left_val>1.3409860432147980e-01</left_val>
            <right_val>-4.8548281192779541e-01</right_val></_></_>
        <_>
          <!-- tree 14 -->
          <_>
            <!-- root node -->
            <feature>
              <rects>
                <_>
                  5 8 14 7 -1.</_>
                <_>
                  12 8 7 7 2.</_></rects>
              <tilted>0</tilted></feature>
            <threshold>-1.3751310110092163e-01</threshold>
            <left_val>5.6257581710815430e-01</left_val>
            <right_val>-1.1332789808511734e-01</right_val></_></_>
        <_>
          <!-- tree 15 -->
          <_>
            <!-- root node -->
            <feature>
              <rects>
                <_>
                  18 2 2 2 -1.</_>
                <_>
                  18 2 1 2 2.</_></rects>
              <tilted>1</tilted></feature>
            <threshold>4.0558590553700924e-03</threshold>
            <left_val>1.3175709545612335e-01</left_val>
            <right_val>-4.6301838755607605e-01</right_val></_></_>
        <_>
          <!-- tree 16 -->
          <_>
            <!-- root node -->
            <feature>
              <rects>
                <_>
                  9 15 3 1 -1.</_>
                <_>
                  10 15 1 1 3.</_></rects>
              <tilted>0</tilted></feature>
            <threshold>-9.1271672863513231e-04</threshold>
            <left_val>-4.0887439250946045e-01</left_val>
            <right_val>1.3981309533119202e-01</right_val></_></_>
        <_>
          <!-- tree 17 -->
          <_>
            <!-- root node -->
            <feature>
              <rects>
                <_>
                  0 8 1 3 -1.</_>
                <_>
                  0 9 1 1 3.</_></rects>
              <tilted>0</tilted></feature>
            <threshold>2.1880608983337879e-03</threshold>
            <left_val>9.2258572578430176e-02</left_val>
            <right_val>-6.1969012022018433e-01</right_val></_></_>
        <_>
          <!-- tree 18 -->
          <_>
            <!-- root node -->
            <feature>
              <rects>
                <_>
                  0 8 1 3 -1.</_>
                <_>
                  0 9 1 1 3.</_></rects>
              <tilted>0</tilted></feature>
            <threshold>-1.7490490572527051e-03</threshold>
            <left_val>-4.5690691471099854e-01</left_val>
            <right_val>1.0545119643211365e-01</right_val></_></_>
        <_>
          <!-- tree 19 -->
          <_>
            <!-- root node -->
            <feature>
              <rects>
                <_>
                  14 12 6 1 -1.</_>
                <_>
                  16 14 2 1 3.</_></rects>
              <tilted>1</tilted></feature>
            <threshold>-3.5560829564929008e-03</threshold>
            <left_val>2.1773859858512878e-01</left_val>
            <right_val>-2.3872749507427216e-01</right_val></_></_>
        <_>
          <!-- tree 20 -->
          <_>
            <!-- root node -->
            <feature>
              <rects>
                <_>
                  0 8 6 10 -1.</_>
                <_>
                  0 8 3 5 2.</_>
                <_>
                  3 13 3 5 2.</_></rects>
              <tilted>0</tilted></feature>
            <threshold>-1.4113840006757528e-04</threshold>
            <left_val>1.8676860630512238e-01</left_val>
            <right_val>-2.4302980303764343e-01</right_val></_></_></trees>
      <stage_threshold>-1.1164319515228271e+00</stage_threshold>
      <parent>1</parent>
      <next>-1</next></_>
    <_>
      <!-- stage 3 -->
      <trees>
        <_>
          <!-- tree 0 -->
          <_>
            <!-- root node -->
            <feature>
              <rects>
                <_>
                  0 0 4 19 -1.</_>
                <_>
                  2 0 2 19 2.</_></rects>
              <tilted>0</tilted></feature>
            <threshold>-2.1474570035934448e-02</threshold>
            <left_val>3.2583498954772949e-01</left_val>
            <right_val>-2.7934980392456055e-01</right_val></_></_>
        <_>
          <!-- tree 1 -->
          <_>
            <!-- root node -->
            <feature>
              <rects>
                <_>
                  1 18 16 2 -1.</_>
                <_>
                  1 19 16 1 2.</_></rects>
              <tilted>0</tilted></feature>
            <threshold>1.1611400172114372e-02</threshold>
            <left_val>-1.8705029785633087e-01</left_val>
            <right_val>3.7363469600677490e-01</right_val></_></_>
        <_>
          <!-- tree 2 -->
          <_>
            <!-- root node -->
            <feature>
              <rects>
                <_>
                  5 4 6 5 -1.</_>
                <_>
                  5 4 3 5 2.</_></rects>
              <tilted>1</tilted></feature>
            <threshold>8.7532605975866318e-03</threshold>
            <left_val>1.8888099491596222e-01</left_val>
            <right_val>-3.7949779629707336e-01</right_val></_></_>
        <_>
          <!-- tree 3 -->
          <_>
            <!-- root node -->
            <feature>
              <rects>
                <_>
                  16 0 4 2 -1.</_>
                <_>
                  16 0 4 1 2.</_></rects>
              <tilted>1</tilted></feature>
            <threshold>1.4899269677698612e-02</threshold>
            <left_val>-6.8556733429431915e-02</left_val>
            <right_val>5.2420008182525635e-01</right_val></_></_>
        <_>
          <!-- tree 4 -->
          <_>
            <!-- root node -->
            <feature>
              <rects>
                <_>
                  0 14 2 6 -1.</_>
                <_>
                  0 17 2 3 2.</_></rects>
              <tilted>0</tilted></feature>
            <threshold>-7.6505849137902260e-03</threshold>
            <left_val>-4.4509330391883850e-01</left_val>
            <right_val>1.1605360358953476e-01</right_val></_></_>
        <_>
          <!-- tree 5 -->
          <_>
            <!-- root node -->
            <feature>
              <rects>
                <_>
                  17 5 2 4 -1.</_>
                <_>
                  17 5 2 2 2.</_></rects>
              <tilted>1</tilted></feature>
            <threshold>8.4406873211264610e-03</threshold>
            <left_val>6.5043553709983826e-02</left_val>
            <right_val>-4.6536570787429810e-01</right_val></_></_>
        <_>
          <!-- tree 6 -->
          <_>
            <!-- root node -->
            <feature>
              <rects>
                <_>
                  19 16 1 2 -1.</_>
                <_>
                  19 17 1 1 2.</_></rects>
              <tilted>0</tilted></feature>
            <threshold>-5.6414259597659111e-04</threshold>
            <left_val>-3.4948688745498657e-01</left_val>
            <right_val>1.3045230507850647e-01</right_val></_></_>
        <_>
          <!-- tree 7 -->
          <_>
            <!-- root node -->
            <feature>
              <rects>
                <_>
                  18 3 2 13 -1.</_>
                <_>
                  19 3 1 13 2.</_></rects>
              <tilted>0</tilted></feature>
            <threshold>2.0562369376420975e-02</threshold>
            <left_val>-7.3427416384220123e-02</left_val>
            <right_val>5.2586537599563599e-01</right_val></_></_>
        <_>
          <!-- tree 8 -->
          <_>
            <!-- root node -->
            <feature>
              <rects>
                <_>
                  19 1 1 2 -1.</_>
                <_>
                  19 2 1 1 2.</_></rects>
              <tilted>0</tilted></feature>
            <threshold>8.8498578406870365e-04</threshold>
            <left_val>1.1435259878635406e-01</left_val>
            <right_val>-3.9528718590736389e-01</right_val></_></_>
        <_>
          <!-- tree 9 -->
          <_>
            <!-- root node -->
            <feature>
              <rects>
                <_>
                  6 3 1 2 -1.</_>
                <_>
                  6 3 1 1 2.</_></rects>
              <tilted>1</tilted></feature>
            <threshold>1.6911319689825177e-03</threshold>
            <left_val>1.0932020097970963e-01</left_val>
            <right_val>-3.5277989506721497e-01</right_val></_></_>
        <_>
          <!-- tree 10 -->
          <_>
            <!-- root node -->
            <feature>
              <rects>
                <_>
                  16 16 2 2 -1.</_>
                <_>
                  16 16 2 1 2.</_></rects>
              <tilted>1</tilted></feature>
            <threshold>3.9955149404704571e-03</threshold>
            <left_val>1.0769599676132202e-01</left_val>
            <right_val>-4.0132620930671692e-01</right_val></_></_>
        <_>
          <!-- tree 11 -->
          <_>
            <!-- root node -->
            <feature>
              <rects>
                <_>
                  4 12 1 2 -1.</_>
                <_>
                  4 13 1 1 2.</_></rects>
              <tilted>0</tilted></feature>
            <threshold>6.7718629725277424e-04</threshold>
            <left_val>1.1068750172853470e-01</left_val>
            <right_val>-3.5728868842124939e-01</right_val></_></_>
        <_>
          <!-- tree 12 -->
          <_>
            <!-- root node -->
            <feature>
              <rects>
                <_>
                  2 11 1 3 -1.</_>
                <_>
                  2 12 1 1 3.</_></rects>
              <tilted>0</tilted></feature>
            <threshold>1.0468909749761224e-03</threshold>
            <left_val>1.2260740250349045e-01</left_val>
            <right_val>-3.6604750156402588e-01</right_val></_></_>
        <_>
          <!-- tree 13 -->
          <_>
            <!-- root node -->
            <feature>
              <rects>
                <_>
                  3 12 5 3 -1.</_>
                <_>
                  2 13 5 1 3.</_></rects>
              <tilted>1</tilted></feature>
            <threshold>-1.7215799540281296e-02</threshold>
            <left_val>3.8355439901351929e-01</left_val>
            <right_val>-1.2873539328575134e-01</right_val></_></_>
        <_>
          <!-- tree 14 -->
          <_>
            <!-- root node -->
            <feature>
              <rects>
                <_>
                  4 6 1 2 -1.</_>
                <_>
                  4 7 1 1 2.</_></rects>
              <tilted>0</tilted></feature>
            <threshold>-7.5066398130729795e-04</threshold>
            <left_val>-3.6260259151458740e-01</left_val>
            <right_val>1.2510930001735687e-01</right_val></_></_>
        <_>
          <!-- tree 15 -->
          <_>
            <!-- root node -->
            <feature>
              <rects>
                <_>
                  0 0 3 16 -1.</_>
                <_>
                  0 4 3 8 2.</_></rects>
              <tilted>0</tilted></feature>
            <threshold>1.9722169265151024e-02</threshold>
            <left_val>9.9609620869159698e-02</left_val>
            <right_val>-4.0686419606208801e-01</right_val></_></_>
        <_>
          <!-- tree 16 -->
          <_>
            <!-- root node -->
            <feature>
              <rects>
                <_>
                  16 5 4 10 -1.</_>
                <_>
                  16 10 4 5 2.</_></rects>
              <tilted>0</tilted></feature>
            <threshold>6.9120243191719055e-02</threshold>
            <left_val>5.3161580115556717e-02</left_val>
            <right_val>-7.4541461467742920e-01</right_val></_></_>
        <_>
          <!-- tree 17 -->
          <_>
            <!-- root node -->
            <feature>
              <rects>
                <_>
                  17 5 3 9 -1.</_>
                <_>
                  17 8 3 3 3.</_></rects>
              <tilted>0</tilted></feature>
            <threshold>2.3800320923328400e-02</threshold>
            <left_val>8.2971997559070587e-02</left_val>
            <right_val>-4.3606019020080566e-01</right_val></_></_>
        <_>
          <!-- tree 18 -->
          <_>
            <!-- root node -->
            <feature>
              <rects>
                <_>
                  8 2 1 2 -1.</_>
                <_>
                  8 3 1 1 2.</_></rects>
              <tilted>0</tilted></feature>
            <threshold>2.7696780307451263e-05</threshold>
            <left_val>-2.0431309938430786e-01</left_val>
            <right_val>1.8598319590091705e-01</right_val></_></_>
        <_>
          <!-- tree 19 -->
          <_>
            <!-- root node -->
            <feature>
              <rects>
                <_>
                  9 4 1 2 -1.</_>
                <_>
                  9 5 1 1 2.</_></rects>
              <tilted>0</tilted></feature>
            <threshold>-7.5720192398875952e-04</threshold>
            <left_val>-3.5767689347267151e-01</left_val>
            <right_val>1.0717529803514481e-01</right_val></_></_>
        <_>
          <!-- tree 20 -->
          <_>
            <!-- root node -->
            <feature>
              <rects>
                <_>
                  17 12 3 4 -1.</_>
                <_>
                  17 12 3 2 2.</_></rects>
              <tilted>1</tilted></feature>
            <threshold>-3.5598739981651306e-02</threshold>
            <left_val>-7.2887057065963745e-01</left_val>
            <right_val>5.0071910023689270e-02</right_val></_></_>
        <_>
          <!-- tree 21 -->
          <_>
            <!-- root node -->
            <feature>
              <rects>
                <_>
                  1 0 16 20 -1.</_>
                <_>
                  1 0 8 10 2.</_>
                <_>
                  9 10 8 10 2.</_></rects>
              <tilted>0</tilted></feature>
            <threshold>-1.4387910068035126e-01</threshold>
            <left_val>-3.9515030384063721e-01</left_val>
            <right_val>9.0419687330722809e-02</right_val></_></_>
        <_>
          <!-- tree 22 -->
          <_>
            <!-- root node -->
            <feature>
              <rects>
                <_>
                  3 14 2 1 -1.</_>
                <_>
                  3 14 1 1 2.</_></rects>
              <tilted>1</tilted></feature>
            <threshold>3.2212429214268923e-03</threshold>
            <left_val>7.5921170413494110e-02</left_val>
            <right_val>-4.7228550910949707e-01</right_val></_></_>
        <_>
          <!-- tree 23 -->
          <_>
            <!-- root node -->
            <feature>
              <rects>
                <_>
                  4 11 6 3 -1.</_>
                <_>
                  4 11 3 3 2.</_></rects>
              <tilted>1</tilted></feature>
            <threshold>-4.9086548388004303e-02</threshold>
            <left_val>-5.6928068399429321e-01</left_val>
            <right_val>6.5895371139049530e-02</right_val></_></_>
        <_>
          <!-- tree 24 -->
          <_>
            <!-- root node -->
            <feature>
              <rects>
                <_>
                  14 0 6 2 -1.</_>
                <_>
                  14 0 3 2 2.</_></rects>
              <tilted>1</tilted></feature>
            <threshold>-2.9745670035481453e-02</threshold>
            <left_val>-5.1505792140960693e-01</left_val>
            <right_val>6.6808536648750305e-02</right_val></_></_>
        <_>
          <!-- tree 25 -->
          <_>
            <!-- root node -->
            <feature>
              <rects>
                <_>
                  4 6 2 3 -1.</_>
                <_>
                  4 7 2 1 3.</_></rects>
              <tilted>0</tilted></feature>
            <threshold>2.4467089679092169e-03</threshold>
            <left_val>9.7309783101081848e-02</left_val>
            <right_val>-3.8429740071296692e-01</right_val></_></_>
        <_>
          <!-- tree 26 -->
          <_>
            <!-- root node -->
            <feature>
              <rects>
                <_>
                  16 9 4 9 -1.</_>
                <_>
                  16 12 4 3 3.</_></rects>
              <tilted>0</tilted></feature>
            <threshold>1.2918129563331604e-02</threshold>
            <left_val>1.1631079763174057e-01</left_val>
            <right_val>-3.1488519906997681e-01</right_val></_></_>
        <_>
          <!-- tree 27 -->
          <_>
            <!-- root node -->
            <feature>
              <rects>
                <_>
                  2 5 5 2 -1.</_>
                <_>
                  2 6 5 1 2.</_></rects>
              <tilted>0</tilted></feature>
            <threshold>3.6514298699330539e-05</threshold>
            <left_val>-1.8788659572601318e-01</left_val>
            <right_val>1.8772310018539429e-01</right_val></_></_>
        <_>
          <!-- tree 28 -->
          <_>
            <!-- root node -->
            <feature>
              <rects>
                <_>
                  19 18 1 2 -1.</_>
                <_>
                  19 19 1 1 2.</_></rects>
              <tilted>0</tilted></feature>
            <threshold>-4.9339811084792018e-04</threshold>
            <left_val>-2.8166389465332031e-01</left_val>
            <right_val>1.1937099695205688e-01</right_val></_></_>
        <_>
          <!-- tree 29 -->
          <_>
            <!-- root node -->
            <feature>
              <rects>
                <_>
                  13 1 4 12 -1.</_>
                <_>
                  13 1 2 12 2.</_></rects>
              <tilted>1</tilted></feature>
            <threshold>-9.4009079039096832e-03</threshold>
            <left_val>1.6584169864654541e-01</left_val>
            <right_val>-2.0933610200881958e-01</right_val></_></_>
        <_>
          <!-- tree 30 -->
          <_>
            <!-- root node -->
            <feature>
              <rects>
                <_>
                  1 1 6 16 -1.</_>
                <_>
                  1 9 6 8 2.</_></rects>
              <tilted>0</tilted></feature>
            <threshold>1.9307740032672882e-01</threshold>
            <left_val>4.5544300228357315e-02</left_val>
            <right_val>-7.8541702032089233e-01</right_val></_></_>
        <_>
          <!-- tree 31 -->
          <_>
            <!-- root node -->
            <feature>
              <rects>
                <_>
                  15 7 1 2 -1.</_>
                <_>
                  15 8 1 1 2.</_></rects>
              <tilted>0</tilted></feature>
            <threshold>1.0249339975416660e-03</threshold>
            <left_val>8.2636997103691101e-02</left_val>
            <right_val>-3.6469051241874695e-01</right_val></_></_></trees>
      <stage_threshold>-1.1815290451049805e+00</stage_threshold>
      <parent>2</parent>
      <next>-1</next></_>
    <_>
      <!-- stage 4 -->
      <trees>
        <_>
          <!-- tree 0 -->
          <_>
            <!-- root node -->
            <feature>
              <rects>
                <_>
                  12 2 8 18 -1.</_>
                <_>
                  14 2 4 18 2.</_></rects>
              <tilted>0</tilted></feature>
            <threshold>-1.7717080190777779e-02</threshold>
            <left_val>2.8238108754158020e-01</left_val>
            <right_val>-3.0894708633422852e-01</right_val></_></_>
        <_>
          <!-- tree 1 -->
          <_>
            <!-- root node -->
            <feature>
              <rects>
                <_>
                  0 12 12 8 -1.</_>
                <_>
                  0 12 6 4 2.</_>
                <_>
                  6 16 6 4 2.</_></rects>
              <tilted>0</tilted></feature>
            <threshold>-2.4372089654207230e-02</threshold>
            <left_val>2.8789949417114258e-01</left_val>
            <right_val>-2.7298888564109802e-01</right_val></_></_>
        <_>
          <!-- tree 2 -->
          <_>
            <!-- root node -->
            <feature>
              <rects>
                <_>
                  0 0 8 12 -1.</_>
                <_>
                  0 0 4 6 2.</_>
                <_>
                  4 6 4 6 2.</_></rects>
              <tilted>0</tilted></feature>
            <threshold>2.2423900663852692e-02</threshold>
            <left_val>-2.5841870903968811e-01</left_val>
            <right_val>2.4515050649642944e-01</right_val></_></_>
        <_>
          <!-- tree 3 -->
          <_>
            <!-- root node -->
            <feature>
              <rects>
                <_>
                  4 18 11 2 -1.</_>
                <_>
                  4 19 11 1 2.</_></rects>
              <tilted>0</tilted></feature>
            <threshold>8.0432835966348648e-03</threshold>
            <left_val>-1.8670809268951416e-01</left_val>
            <right_val>3.3600729703903198e-01</right_val></_></_>
        <_>
          <!-- tree 4 -->
          <_>
            <!-- root node -->
            <feature>
              <rects>
                <_>
                  12 0 8 12 -1.</_>
                <_>
                  12 0 4 6 2.</_>
                <_>
                  16 6 4 6 2.</_></rects>
              <tilted>0</tilted></feature>
            <threshold>-2.0549759268760681e-02</threshold>
            <left_val>2.6023939251899719e-01</left_val>
            <right_val>-1.7884029448032379e-01</right_val></_></_>
        <_>
          <!-- tree 5 -->
          <_>
            <!-- root node -->
            <feature>
              <rects>
                <_>
                  0 0 9 4 -1.</_>
                <_>
                  0 2 9 2 2.</_></rects>
              <tilted>0</tilted></feature>
            <threshold>-1.3650270178914070e-02</threshold>
            <left_val>2.1471300721168518e-01</left_val>
            <right_val>-2.1149089932441711e-01</right_val></_></_>
        <_>
          <!-- tree 6 -->
          <_>
            <!-- root node -->
            <feature>
              <rects>
                <_>
                  6 7 10 7 -1.</_>
                <_>
                  11 7 5 7 2.</_></rects>
              <tilted>0</tilted></feature>
            <threshold>8.4177032113075256e-02</threshold>
            <left_val>-7.5757473707199097e-02</left_val>
            <right_val>4.6596300601959229e-01</right_val></_></_>
        <_>
          <!-- tree 7 -->
          <_>
            <!-- root node -->
            <feature>
              <rects>
                <_>
                  11 2 9 8 -1.</_>
                <_>
                  11 2 9 4 2.</_></rects>
              <tilted>1</tilted></feature>
            <threshold>-8.6820602416992188e-02</threshold>
            <left_val>3.1646710634231567e-01</left_val>
            <right_val>-1.4363390207290649e-01</right_val></_></_>
        <_>
          <!-- tree 8 -->
          <_>
            <!-- root node -->
            <feature>
              <rects>
                <_>
                  0 2 8 17 -1.</_>
                <_>
                  2 2 4 17 2.</_></rects>
              <tilted>0</tilted></feature>
            <threshold>-2.0954279229044914e-02</threshold>
            <left_val>2.0879429578781128e-01</left_val>
            <right_val>-1.9550059735774994e-01</right_val></_></_>
        <_>
          <!-- tree 9 -->
          <_>
            <!-- root node -->
            <feature>
              <rects>
                <_>
                  15 6 4 8 -1.</_>
                <_>
                  16 7 2 8 2.</_></rects>
              <tilted>1</tilted></feature>
            <threshold>-7.3435050435364246e-03</threshold>
            <left_val>2.3967149853706360e-01</left_val>
            <right_val>-1.7228460311889648e-01</right_val></_></_>
        <_>
          <!-- tree 10 -->
          <_>
            <!-- root node -->
            <feature>
              <rects>
                <_>
                  2 15 2 2 -1.</_>
                <_>
                  2 15 1 2 2.</_></rects>
              <tilted>1</tilted></feature>
            <threshold>-6.1751338653266430e-03</threshold>
            <left_val>-4.8738160729408264e-01</left_val>
            <right_val>9.5361590385437012e-02</right_val></_></_>
        <_>
          <!-- tree 11 -->
          <_>
            <!-- root node -->
            <feature>
              <rects>
                <_>
                  8 8 3 4 -1.</_>
                <_>
                  7 9 3 2 2.</_></rects>
              <tilted>1</tilted></feature>
            <threshold>-1.5483800321817398e-02</threshold>
            <left_val>4.7312891483306885e-01</left_val>
            <right_val>-8.6605317890644073e-02</right_val></_></_>
        <_>
          <!-- tree 12 -->
          <_>
            <!-- root node -->
            <feature>
              <rects>
                <_>
                  16 6 4 10 -1.</_>
                <_>
                  17 7 2 10 2.</_></rects>
              <tilted>1</tilted></feature>
            <threshold>2.0062940195202827e-02</threshold>
            <left_val>-1.0066810250282288e-01</left_val>
            <right_val>3.5184800624847412e-01</right_val></_></_>
        <_>
          <!-- tree 13 -->
          <_>
            <!-- root node -->
            <feature>
              <rects>
                <_>
                  9 5 7 4 -1.</_>
                <_>
                  8 6 7 2 2.</_></rects>
              <tilted>1</tilted></feature>
            <threshold>-1.8201619386672974e-02</threshold>
            <left_val>3.6661168932914734e-01</left_val>
            <right_val>-9.1826677322387695e-02</right_val></_></_>
        <_>
          <!-- tree 14 -->
          <_>
            <!-- root node -->
            <feature>
              <rects>
                <_>
                  6 0 2 6 -1.</_>
                <_>
                  6 0 1 6 2.</_></rects>
              <tilted>1</tilted></feature>
            <threshold>-7.5376131571829319e-03</threshold>
            <left_val>3.7998768687248230e-01</left_val>
            <right_val>-8.3460293710231781e-02</right_val></_></_>
        <_>
          <!-- tree 15 -->
          <_>
            <!-- root node -->
            <feature>
              <rects>
                <_>
                  15 15 4 1 -1.</_>
                <_>
                  15 15 2 1 2.</_></rects>
              <tilted>1</tilted></feature>
            <threshold>-9.1449096798896790e-03</threshold>
            <left_val>3.0409508943557739e-01</left_val>
            <right_val>-1.1346650123596191e-01</right_val></_></_>
        <_>
          <!-- tree 16 -->
          <_>
            <!-- root node -->
            <feature>
              <rects>
                <_>
                  3 7 14 6 -1.</_>
                <_>
                  3 10 14 3 2.</_></rects>
              <tilted>0</tilted></feature>
            <threshold>4.6792421489953995e-02</threshold>
            <left_val>-1.2152980268001556e-01</left_val>
            <right_val>2.9708048701286316e-01</right_val></_></_>
        <_>
          <!-- tree 17 -->
          <_>
            <!-- root node -->
            <feature>
              <rects>
                <_>
                  9 4 10 4 -1.</_>
                <_>
                  8 5 10 2 2.</_></rects>
              <tilted>1</tilted></feature>
            <threshold>4.1572231799364090e-02</threshold>
            <left_val>-5.8744929730892181e-02</left_val>
            <right_val>5.7345157861709595e-01</right_val></_></_>
        <_>
          <!-- tree 18 -->
          <_>
            <!-- root node -->
            <feature>
              <rects>
                <_>
                  18 17 1 2 -1.</_>
                <_>
                  18 17 1 1 2.</_></rects>
              <tilted>1</tilted></feature>
            <threshold>3.1180370133370161e-03</threshold>
            <left_val>8.8904596865177155e-02</left_val>
            <right_val>-4.3339848518371582e-01</right_val></_></_>
        <_>
          <!-- tree 19 -->
          <_>
            <!-- root node -->
            <feature>
              <rects>
                <_>
                  0 2 9 10 -1.</_>
                <_>
                  0 7 9 5 2.</_></rects>
              <tilted>0</tilted></feature>
            <threshold>1.3174879550933838e-01</threshold>
            <left_val>3.7661790847778320e-02</left_val>
            <right_val>-6.5708369016647339e-01</right_val></_></_>
        <_>
          <!-- tree 20 -->
          <_>
            <!-- root node -->
            <feature>
              <rects>
                <_>
                  18 12 2 8 -1.</_>
                <_>
                  18 14 2 4 2.</_></rects>
              <tilted>0</tilted></feature>
            <threshold>-2.3753009736537933e-02</threshold>
            <left_val>-6.7641741037368774e-01</left_val>
            <right_val>4.4454991817474365e-02</right_val></_></_>
        <_>
          <!-- tree 21 -->
          <_>
            <!-- root node -->
            <feature>
              <rects>
                <_>
                  8 17 2 3 -1.</_>
                <_>
                  9 17 1 3 2.</_></rects>
              <tilted>0</tilted></feature>
            <threshold>4.5932237990200520e-03</threshold>
            <left_val>5.4114140570163727e-02</left_val>
            <right_val>-5.7404351234436035e-01</right_val></_></_>
        <_>
          <!-- tree 22 -->
          <_>
            <!-- root node -->
            <feature>
              <rects>
                <_>
                  8 18 4 2 -1.</_>
                <_>
                  9 18 2 2 2.</_></rects>
              <tilted>0</tilted></feature>
            <threshold>-2.8303910512477160e-03</threshold>
            <left_val>-3.7720420956611633e-01</left_val>
            <right_val>8.1294983625411987e-02</right_val></_></_>
        <_>
          <!-- tree 23 -->
          <_>
            <!-- root node -->
            <feature>
              <rects>
                <_>
                  4 0 3 3 -1.</_>
                <_>
                  5 1 1 3 3.</_></rects>
              <tilted>1</tilted></feature>
            <threshold>6.6197430714964867e-03</threshold>
            <left_val>-1.0815279930830002e-01</left_val>
            <right_val>3.2891350984573364e-01</right_val></_></_>
        <_>
          <!-- tree 24 -->
          <_>
            <!-- root node -->
            <feature>
              <rects>
                <_>
                  4 1 2 2 -1.</_>
                <_>
                  4 1 2 1 2.</_></rects>
              <tilted>1</tilted></feature>
            <threshold>4.5614740811288357e-03</threshold>
            <left_val>9.7971610724925995e-02</left_val>
            <right_val>-3.9075469970703125e-01</right_val></_></_>
        <_>
          <!-- tree 25 -->
          <_>
            <!-- root node -->
            <feature>
              <rects>
                <_>
                  5 0 2 4 -1.</_>
                <_>
                  5 0 2 2 2.</_></rects>
              <tilted>1</tilted></feature>
            <threshold>-1.2849760241806507e-02</threshold>
            <left_val>-4.4307211041450500e-01</left_val>
            <right_val>7.1048676967620850e-02</right_val></_></_>
        <_>
          <!-- tree 26 -->
          <_>
            <!-- root node -->
            <feature>
              <rects>
                <_>
                  16 1 4 3 -1.</_>
                <_>
                  15 2 4 1 3.</_></rects>
              <tilted>1</tilted></feature>
            <threshold>-1.4662469737231731e-02</threshold>
            <left_val>3.8795679807662964e-01</left_val>
            <right_val>-9.5661662518978119e-02</right_val></_></_>
        <_>
          <!-- tree 27 -->
          <_>
            <!-- root node -->
            <feature>
              <rects>
                <_>
                  16 0 4 2 -1.</_>
                <_>
                  16 0 4 1 2.</_></rects>
              <tilted>1</tilted></feature>
            <threshold>-1.0653600096702576e-02</threshold>
            <left_val>5.2006530761718750e-01</left_val>
            <right_val>-5.9993389993906021e-02</right_val></_></_>
        <_>
          <!-- tree 28 -->
          <_>
            <!-- root node -->
            <feature>
              <rects>
                <_>
                  3 0 17 2 -1.</_>
                <_>
                  3 1 17 1 2.</_></rects>
              <tilted>0</tilted></feature>
            <threshold>-1.3511990197002888e-02</threshold>
            <left_val>2.7624198794364929e-01</left_val>
            <right_val>-1.1400759965181351e-01</right_val></_></_>
        <_>
          <!-- tree 29 -->
          <_>
            <!-- root node -->
            <feature>
              <rects>
                <_>
                  3 11 6 3 -1.</_>
                <_>
                  2 12 6 1 3.</_></rects>
              <tilted>1</tilted></feature>
            <threshold>-2.0856050774455070e-02</threshold>
            <left_val>3.8135010004043579e-01</left_val>
            <right_val>-8.5297852754592896e-02</right_val></_></_>
        <_>
          <!-- tree 30 -->
          <_>
            <!-- root node -->
            <feature>
              <rects>
                <_>
                  3 11 4 3 -1.</_>
                <_>
                  2 12 4 1 3.</_></rects>
              <tilted>1</tilted></feature>
            <threshold>9.8698511719703674e-03</threshold>
            <left_val>-9.7520932555198669e-02</left_val>
            <right_val>4.3394330143928528e-01</right_val></_></_>
        <_>
          <!-- tree 31 -->
          <_>
            <!-- root node -->
            <feature>
              <rects>
                <_>
                  3 12 2 1 -1.</_>
                <_>
                  4 12 1 1 2.</_></rects>
              <tilted>0</tilted></feature>
            <threshold>1.7940850739250891e-05</threshold>
            <left_val>-1.8752990663051605e-01</left_val>
            <right_val>1.7952379584312439e-01</right_val></_></_>
        <_>
          <!-- tree 32 -->
          <_>
            <!-- root node -->
            <feature>
              <rects>
                <_>
                  18 1 2 1 -1.</_>
                <_>
                  18 1 1 1 2.</_></rects>
              <tilted>1</tilted></feature>
            <threshold>2.4058690760284662e-03</threshold>
            <left_val>8.4491290152072906e-02</left_val>
            <right_val>-3.7672591209411621e-01</right_val></_></_>
        <_>
          <!-- tree 33 -->
          <_>
            <!-- root node -->
            <feature>
              <rects>
                <_>
                  1 14 3 1 -1.</_>
                <_>
                  2 15 1 1 3.</_></rects>
              <tilted>1</tilted></feature>
            <threshold>7.0346677675843239e-03</threshold>
            <left_val>4.6334091573953629e-02</left_val>
            <right_val>-6.2777531147003174e-01</right_val></_></_>
        <_>
          <!-- tree 34 -->
          <_>
            <!-- root node -->
            <feature>
              <rects>
                <_>
                  10 0 4 8 -1.</_>
                <_>
                  11 1 2 8 2.</_></rects>
              <tilted>1</tilted></feature>
            <threshold>2.0733730867505074e-02</threshold>
            <left_val>-8.4873378276824951e-02</left_val>
            <right_val>3.7739419937133789e-01</right_val></_></_></trees>
      <stage_threshold>-1.0747940540313721e+00</stage_threshold>
      <parent>3</parent>
      <next>-1</next></_>
    <_>
      <!-- stage 5 -->
      <trees>
        <_>
          <!-- tree 0 -->
          <_>
            <!-- root node -->
            <feature>
              <rects>
                <_>
                  0 1 4 16 -1.</_>
                <_>
                  2 1 2 16 2.</_></rects>
              <tilted>0</tilted></feature>
            <threshold>-4.1119299829006195e-02</threshold>
            <left_val>5.0385332107543945e-01</left_val>
            <right_val>-1.8320280313491821e-01</right_val></_></_>
        <_>
          <!-- tree 1 -->
          <_>
            <!-- root node -->
            <feature>
              <rects>
                <_>
                  0 0 20 3 -1.</_>
                <_>
                  5 0 10 3 2.</_></rects>
              <tilted>0</tilted></feature>
            <threshold>-3.8002200424671173e-02</threshold>
            <left_val>3.0800360441207886e-01</left_val>
            <right_val>-2.0690940320491791e-01</right_val></_></_>
        <_>
          <!-- tree 2 -->
          <_>
            <!-- root node -->
            <feature>
              <rects>
                <_>
                  0 0 2 2 -1.</_>
                <_>
                  0 1 2 1 2.</_></rects>
              <tilted>0</tilted></feature>
            <threshold>1.3427309459075332e-03</threshold>
            <left_val>1.3073630630970001e-01</left_val>
            <right_val>-4.2268529534339905e-01</right_val></_></_>
        <_>
          <!-- tree 3 -->
          <_>
            <!-- root node -->
            <feature>
              <rects>
                <_>
                  0 0 2 3 -1.</_>
                <_>
                  0 1 2 1 3.</_></rects>
              <tilted>0</tilted></feature>
            <threshold>-4.0476098656654358e-03</threshold>
            <left_val>-5.2899837493896484e-01</left_val>
            <right_val>1.4900760352611542e-01</right_val></_></_>
        <_>
          <!-- tree 4 -->
          <_>
            <!-- root node -->
            <feature>
              <rects>
                <_>
                  6 6 12 11 -1.</_>
                <_>
                  12 6 6 11 2.</_></rects>
              <tilted>0</tilted></feature>
            <threshold>-1.1337959766387939e-01</threshold>
            <left_val>3.5888639092445374e-01</left_val>
            <right_val>-1.6517420113086700e-01</right_val></_></_>
        <_>
          <!-- tree 5 -->
          <_>
            <!-- root node -->
            <feature>
              <rects>
                <_>
                  4 3 10 12 -1.</_>
                <_>
                  9 3 5 12 2.</_></rects>
              <tilted>0</tilted></feature>
            <threshold>7.9650029540061951e-02</threshold>
            <left_val>-1.8235529959201813e-01</left_val>
            <right_val>3.2664400339126587e-01</right_val></_></_>
        <_>
          <!-- tree 6 -->
          <_>
            <!-- root node -->
            <feature>
              <rects>
                <_>
                  0 17 20 3 -1.</_>
                <_>
                  5 17 10 3 2.</_></rects>
              <tilted>0</tilted></feature>
            <threshold>-2.7858370915055275e-02</threshold>
            <left_val>2.4594250321388245e-01</left_val>
            <right_val>-1.8120190501213074e-01</right_val></_></_>
        <_>
          <!-- tree 7 -->
          <_>
            <!-- root node -->
            <feature>
              <rects>
                <_>
                  18 0 1 2 -1.</_>
                <_>
                  18 1 1 1 2.</_></rects>
              <tilted>0</tilted></feature>
            <threshold>7.6075788820162416e-04</threshold>
            <left_val>8.5567317903041840e-02</left_val>
            <right_val>-3.9372789859771729e-01</right_val></_></_>
        <_>
          <!-- tree 8 -->
          <_>
            <!-- root node -->
            <feature>
              <rects>
                <_>
                  13 5 1 2 -1.</_>
                <_>
                  13 6 1 1 2.</_></rects>
              <tilted>0</tilted></feature>
            <threshold>-5.6356552522629499e-04</threshold>
            <left_val>-3.3996531367301941e-01</left_val>
            <right_val>1.2551900744438171e-01</right_val></_></_>
        <_>
          <!-- tree 9 -->
          <_>
            <!-- root node -->
            <feature>
              <rects>
                <_>
                  19 10 1 3 -1.</_>
                <_>
                  19 11 1 1 3.</_></rects>
              <tilted>0</tilted></feature>
            <threshold>9.2640687944367528e-04</threshold>
            <left_val>1.0143589973449707e-01</left_val>
            <right_val>-3.5325050354003906e-01</right_val></_></_>
        <_>
          <!-- tree 10 -->
          <_>
            <!-- root node -->
            <feature>
              <rects>
                <_>
                  14 9 6 3 -1.</_>
                <_>
                  14 10 6 1 3.</_></rects>
              <tilted>0</tilted></feature>
            <threshold>1.0650860145688057e-02</threshold>
            <left_val>7.9018026590347290e-02</left_val>
            <right_val>-5.4500979185104370e-01</right_val></_></_>
        <_>
          <!-- tree 11 -->
          <_>
            <!-- root node -->
            <feature>
              <rects>
                <_>
                  8 0 11 12 -1.</_>
                <_>
                  8 3 11 6 2.</_></rects>
              <tilted>0</tilted></feature>
            <threshold>-3.6850240081548691e-02</threshold>
            <left_val>2.3853360116481781e-01</left_val>
            <right_val>-1.8178619444370270e-01</right_val></_></_>
        <_>
          <!-- tree 12 -->
          <_>
            <!-- root node -->
            <feature>
              <rects>
                <_>
                  0 3 3 11 -1.</_>
                <_>
                  1 3 1 11 3.</_></rects>
              <tilted>0</tilted></feature>
            <threshold>-6.0205738991498947e-03</threshold>
            <left_val>2.6648241281509399e-01</left_val>
            <right_val>-1.4206649363040924e-01</right_val></_></_>
        <_>
          <!-- tree 13 -->
          <_>
            <!-- root node -->
            <feature>
              <rects>
                <_>
                  3 7 1 2 -1.</_>
                <_>
                  3 8 1 1 2.</_></rects>
              <tilted>0</tilted></feature>
            <threshold>-5.0865340745076537e-04</threshold>
            <left_val>-2.9812660813331604e-01</left_val>
            <right_val>1.2296730279922485e-01</right_val></_></_>
        <_>
          <!-- tree 14 -->
          <_>
            <!-- root node -->
            <feature>
              <rects>
                <_>
                  9 17 3 1 -1.</_>
                <_>
                  10 17 1 1 3.</_></rects>
              <tilted>0</tilted></feature>
            <threshold>-7.8884029062464833e-04</threshold>
            <left_val>-3.2363149523735046e-01</left_val>
            <right_val>1.0918519645929337e-01</right_val></_></_>
        <_>
          <!-- tree 15 -->
          <_>
            <!-- root node -->
            <feature>
              <rects>
                <_>
                  0 9 2 3 -1.</_>
                <_>
                  0 10 2 1 3.</_></rects>
              <tilted>0</tilted></feature>
            <threshold>-3.6619571037590504e-03</threshold>
            <left_val>-4.7942331433296204e-01</left_val>
            <right_val>7.3652707040309906e-02</right_val></_></_>
        <_>
          <!-- tree 16 -->
          <_>
            <!-- root node -->
            <feature>
              <rects>
                <_>
                  1 9 1 3 -1.</_>
                <_>
                  1 10 1 1 3.</_></rects>
              <tilted>0</tilted></feature>
            <threshold>1.6711240168660879e-03</threshold>
            <left_val>9.5151126384735107e-02</left_val>
            <right_val>-4.2389678955078125e-01</right_val></_></_>
        <_>
          <!-- tree 17 -->
          <_>
            <!-- root node -->
            <feature>
              <rects>
                <_>
                  9 10 4 4 -1.</_>
                <_>
                  8 11 4 2 2.</_></rects>
              <tilted>1</tilted></feature>
            <threshold>1.9102169200778008e-02</threshold>
            <left_val>-9.1555863618850708e-02</left_val>
            <right_val>4.1078329086303711e-01</right_val></_></_>
        <_>
          <!-- tree 18 -->
          <_>
            <!-- root node -->
            <feature>
              <rects>
                <_>
                  9 17 3 1 -1.</_>
                <_>
                  10 17 1 1 3.</_></rects>
              <tilted>0</tilted></feature>
            <threshold>8.9761859271675348e-04</threshold>
            <left_val>1.2866570055484772e-01</left_val>
            <right_val>-2.9153010249137878e-01</right_val></_></_>
        <_>
          <!-- tree 19 -->
          <_>
            <!-- root node -->
            <feature>
              <rects>
                <_>
                  13 13 1 3 -1.</_>
                <_>
                  13 14 1 1 3.</_></rects>
              <tilted>0</tilted></feature>
            <threshold>-1.2681550579145551e-03</threshold>
            <left_val>-3.5557121038436890e-01</left_val>
            <right_val>8.7910607457160950e-02</right_val></_></_>
        <_>
          <!-- tree 20 -->
          <_>
            <!-- root node -->
            <feature>
              <rects>
                <_>
                  18 0 2 1 -1.</_>
                <_>
                  19 0 1 1 2.</_></rects>
              <tilted>0</tilted></feature>
            <threshold>-8.3692517364397645e-04</threshold>
            <left_val>-3.7746140360832214e-01</left_val>
            <right_val>8.8832169771194458e-02</right_val></_></_>
        <_>
          <!-- tree 21 -->
          <_>
            <!-- root node -->
            <feature>
              <rects>
                <_>
                  15 13 1 2 -1.</_>
                <_>
                  15 14 1 1 2.</_></rects>
              <tilted>0</tilted></feature>
            <threshold>6.6366570536047220e-04</threshold>
            <left_val>1.1010020226240158e-01</left_val>
            <right_val>-2.9951110482215881e-01</right_val></_></_>
        <_>
          <!-- tree 22 -->
          <_>
            <!-- root node -->
            <feature>
              <rects>
                <_>
                  14 8 2 1 -1.</_>
                <_>
                  15 8 1 1 2.</_></rects>
              <tilted>0</tilted></feature>
            <threshold>5.6740158470347524e-04</threshold>
            <left_val>1.0068669915199280e-01</left_val>
            <right_val>-3.3040580153465271e-01</right_val></_></_>
        <_>
          <!-- tree 23 -->
          <_>
            <!-- root node -->
            <feature>
              <rects>
                <_>
                  7 0 1 4 -1.</_>
                <_>
                  7 0 1 2 2.</_></rects>
              <tilted>1</tilted></feature>
            <threshold>-4.5586698688566685e-03</threshold>
            <left_val>-3.5556170344352722e-01</left_val>
            <right_val>9.2127002775669098e-02</right_val></_></_>
        <_>
          <!-- tree 24 -->
          <_>
            <!-- root node -->
            <feature>
              <rects>
                <_>
                  6 0 3 6 -1.</_>
                <_>
                  4 2 3 2 3.</_></rects>
              <tilted>1</tilted></feature>
            <threshold>-2.2973500192165375e-02</threshold>
            <left_val>-3.3979278802871704e-01</left_val>
            <right_val>1.0859239846467972e-01</right_val></_></_>
        <_>
          <!-- tree 25 -->
          <_>
            <!-- root node -->
            <feature>
              <rects>
                <_>
                  6 7 6 6 -1.</_>
                <_>
                  8 7 2 6 3.</_></rects>
              <tilted>0</tilted></feature>
            <threshold>-3.2320600003004074e-02</threshold>
            <left_val>4.4873911142349243e-01</left_val>
            <right_val>-8.2688331604003906e-02</right_val></_></_>
        <_>
          <!-- tree 26 -->
          <_>
            <!-- root node -->
            <feature>
              <rects>
                <_>
                  13 1 7 3 -1.</_>
                <_>
                  12 2 7 1 3.</_></rects>
              <tilted>1</tilted></feature>
            <threshold>1.4083430171012878e-02</threshold>
            <left_val>-8.1409662961959839e-02</left_val>
            <right_val>3.9275568723678589e-01</right_val></_></_>
        <_>
          <!-- tree 27 -->
          <_>
            <!-- root node -->
            <feature>
              <rects>
                <_>
                  3 6 1 3 -1.</_>
                <_>
                  3 7 1 1 3.</_></rects>
              <tilted>0</tilted></feature>
            <threshold>-9.0793159324675798e-04</threshold>
            <left_val>-2.9417818784713745e-01</left_val>
            <right_val>1.1730369925498962e-01</right_val></_></_>
        <_>
          <!-- tree 28 -->
          <_>
            <!-- root node -->
            <feature>
              <rects>
                <_>
                  10 2 2 1 -1.</_>
                <_>
                  11 2 1 1 2.</_></rects>
              <tilted>0</tilted></feature>
            <threshold>3.3022990101017058e-04</threshold>
            <left_val>1.3671070337295532e-01</left_val>
            <right_val>-2.4856249988079071e-01</right_val></_></_>
        <_>
          <!-- tree 29 -->
          <_>
            <!-- root node -->
            <feature>
              <rects>
                <_>
                  13 12 7 3 -1.</_>
                <_>
                  13 13 7 1 3.</_></rects>
              <tilted>0</tilted></feature>
            <threshold>1.3754550367593765e-02</threshold>
            <left_val>5.1620580255985260e-02</left_val>
            <right_val>-6.1423957347869873e-01</right_val></_></_>
        <_>
          <!-- tree 30 -->
          <_>
            <!-- root node -->
            <feature>
              <rects>
                <_>
                  11 8 3 4 -1.</_>
                <_>
                  10 9 3 2 2.</_></rects>
              <tilted>1</tilted></feature>
            <threshold>2.6659069582819939e-02</threshold>
            <left_val>-5.3489759564399719e-02</left_val>
            <right_val>6.3251370191574097e-01</right_val></_></_>
        <_>
          <!-- tree 31 -->
          <_>
            <!-- root node -->
            <feature>
              <rects>
                <_>
                  18 2 2 17 -1.</_>
                <_>
                  19 2 1 17 2.</_></rects>
              <tilted>0</tilted></feature>
            <threshold>8.5122389718890190e-03</threshold>
            <left_val>-1.4391410350799561e-01</left_val>
            <right_val>2.2620239853858948e-01</right_val></_></_>
        <_>
          <!-- tree 32 -->
          <_>
            <!-- root node -->
            <feature>
              <rects>
                <_>
                  3 14 3 3 -1.</_>
                <_>
                  2 15 3 1 3.</_></rects>
              <tilted>1</tilted></feature>
            <threshold>-9.1098640114068985e-03</threshold>
            <left_val>3.2276850938796997e-01</left_val>
            <right_val>-1.0451459884643555e-01</right_val></_></_></trees>
      <stage_threshold>-1.1046060323715210e+00</stage_threshold>
      <parent>4</parent>
      <next>-1</next></_>
    <_>
      <!-- stage 6 -->
      <trees>
        <_>
          <!-- tree 0 -->
          <_>
            <!-- root node -->
            <feature>
              <rects>
                <_>
                  0 1 2 18 -1.</_>
                <_>
                  1 1 1 18 2.</_></rects>
              <tilted>0</tilted></feature>
            <threshold>-8.2310410216450691e-03</threshold>
            <left_val>2.9856410622596741e-01</left_val>
            <right_val>-2.4783110618591309e-01</right_val></_></_>
        <_>
          <!-- tree 1 -->
          <_>
            <!-- root node -->
            <feature>
              <rects>
                <_>
                  16 0 4 20 -1.</_>
                <_>
                  16 5 4 10 2.</_></rects>
              <tilted>0</tilted></feature>
            <threshold>-5.0565700978040695e-02</threshold>
            <left_val>2.8358909487724304e-01</left_val>
            <right_val>-2.0196640491485596e-01</right_val></_></_>
        <_>
          <!-- tree 2 -->
          <_>
            <!-- root node -->
            <feature>
              <rects>
                <_>
                  3 0 13 4 -1.</_>
                <_>
                  3 1 13 2 2.</_></rects>
              <tilted>0</tilted></feature>
            <threshold>-8.8347773998975754e-03</threshold>
            <left_val>2.6448750495910645e-01</left_val>
            <right_val>-1.7651909589767456e-01</right_val></_></_>
        <_>
          <!-- tree 3 -->
          <_>
            <!-- root node -->
            <feature>
              <rects>
                <_>
                  4 13 3 4 -1.</_>
                <_>
                  4 13 3 2 2.</_></rects>
              <tilted>1</tilted></feature>
            <threshold>-2.9112150892615318e-02</threshold>
            <left_val>3.6220040917396545e-01</left_val>
            <right_val>-1.1170370131731033e-01</right_val></_></_>
        <_>
          <!-- tree 4 -->
          <_>
            <!-- root node -->
            <feature>
              <rects>
                <_>
                  9 1 6 8 -1.</_>
                <_>
                  9 1 3 8 2.</_></rects>
              <tilted>1</tilted></feature>
            <threshold>-3.5731840878725052e-02</threshold>
            <left_val>1.9910259544849396e-01</left_val>
            <right_val>-1.9780430197715759e-01</right_val></_></_>
        <_>
          <!-- tree 5 -->
          <_>
            <!-- root node -->
            <feature>
              <rects>
                <_>
                  4 7 8 5 -1.</_>
                <_>
                  8 7 4 5 2.</_></rects>
              <tilted>0</tilted></feature>
            <threshold>-4.8341460525989532e-02</threshold>
            <left_val>4.9362269043922424e-01</left_val>
            <right_val>-4.3262988328933716e-02</right_val></_></_>
        <_>
          <!-- tree 6 -->
          <_>
            <!-- root node -->
            <feature>
              <rects>
                <_>
                  8 10 4 5 -1.</_>
                <_>
                  10 10 2 5 2.</_></rects>
              <tilted>0</tilted></feature>
            <threshold>1.5226909890770912e-02</threshold>
            <left_val>-1.1091610044240952e-01</left_val>
            <right_val>3.3823320269584656e-01</right_val></_></_>
        <_>
          <!-- tree 7 -->
          <_>
            <!-- root node -->
            <feature>
              <rects>
                <_>
                  18 11 2 3 -1.</_>
                <_>
                  19 11 1 3 2.</_></rects>
              <tilted>0</tilted></feature>
            <threshold>4.5456518419086933e-03</threshold>
            <left_val>-1.0111609846353531e-01</left_val>
            <right_val>3.2790800929069519e-01</right_val></_></_>
        <_>
          <!-- tree 8 -->
          <_>
            <!-- root node -->
            <feature>
              <rects>
                <_>
                  5 1 4 5 -1.</_>
                <_>
                  6 2 2 5 2.</_></rects>
              <tilted>1</tilted></feature>
            <threshold>-1.9072169438004494e-02</threshold>
            <left_val>2.9560950398445129e-01</left_val>
            <right_val>-1.1050389707088470e-01</right_val></_></_>
        <_>
          <!-- tree 9 -->
          <_>
            <!-- root node -->
            <feature>
              <rects>
                <_>
                  0 17 1 2 -1.</_>
                <_>
                  0 18 1 1 2.</_></rects>
              <tilted>0</tilted></feature>
            <threshold>-9.9155551288276911e-04</threshold>
            <left_val>-3.6761748790740967e-01</left_val>
            <right_val>1.0820689797401428e-01</right_val></_></_>
        <_>
          <!-- tree 10 -->
          <_>
            <!-- root node -->
            <feature>
              <rects>
                <_>
                  9 9 6 4 -1.</_>
                <_>
                  9 9 3 4 2.</_></rects>
              <tilted>1</tilted></feature>
            <threshold>2.1148610860109329e-02</threshold>
            <left_val>-1.5988120436668396e-01</left_val>
            <right_val>1.9483940303325653e-01</right_val></_></_>
        <_>
          <!-- tree 11 -->
          <_>
            <!-- root node -->
            <feature>
              <rects>
                <_>
                  14 9 4 4 -1.</_>
                <_>
                  15 10 2 4 2.</_></rects>
              <tilted>1</tilted></feature>
            <threshold>1.4184730127453804e-02</threshold>
            <left_val>-7.8171066939830780e-02</left_val>
            <right_val>3.7912720441818237e-01</right_val></_></_>
        <_>
          <!-- tree 12 -->
          <_>
            <!-- root node -->
            <feature>
              <rects>
                <_>
                  17 14 3 3 -1.</_>
                <_>
                  18 15 1 3 3.</_></rects>
              <tilted>1</tilted></feature>
            <threshold>-1.2245669960975647e-02</threshold>
            <left_val>3.1580230593681335e-01</left_val>
            <right_val>-9.2922233045101166e-02</right_val></_></_>
        <_>
          <!-- tree 13 -->
          <_>
            <!-- root node -->
            <feature>
              <rects>
                <_>
                  7 16 3 1 -1.</_>
                <_>
                  8 16 1 1 3.</_></rects>
              <tilted>0</tilted></feature>
            <threshold>9.3545572599396110e-04</threshold>
            <left_val>9.0049818158149719e-02</left_val>
            <right_val>-3.0423781275749207e-01</right_val></_></_>
        <_>
          <!-- tree 14 -->
          <_>
            <!-- root node -->
            <feature>
              <rects>
                <_>
                  17 13 3 4 -1.</_>
                <_>
                  18 14 1 4 3.</_></rects>
              <tilted>1</tilted></feature>
            <threshold>1.6213549301028252e-02</threshold>
            <left_val>-6.5607450902462006e-02</left_val>
            <right_val>4.8078501224517822e-01</right_val></_></_>
        <_>
          <!-- tree 15 -->
          <_>
            <!-- root node -->
            <feature>
              <rects>
                <_>
                  13 5 6 12 -1.</_>
                <_>
                  13 8 6 6 2.</_></rects>
              <tilted>0</tilted></feature>
            <threshold>-5.2963670343160629e-02</threshold>
            <left_val>-5.1490592956542969e-01</left_val>
            <right_val>6.8594321608543396e-02</right_val></_></_>
        <_>
          <!-- tree 16 -->
          <_>
            <!-- root node -->
            <feature>
              <rects>
                <_>
                  15 8 3 3 -1.</_>
                <_>
                  16 9 1 3 3.</_></rects>
              <tilted>1</tilted></feature>
            <threshold>-1.3510029762983322e-02</threshold>
            <left_val>4.3557101488113403e-01</left_val>
            <right_val>-7.9277977347373962e-02</right_val></_></_>
        <_>
          <!-- tree 17 -->
          <_>
            <!-- root node -->
            <feature>
              <rects>
                <_>
                  6 10 10 4 -1.</_>
                <_>
                  6 12 10 2 2.</_></rects>
              <tilted>0</tilted></feature>
            <threshold>3.3414620906114578e-02</threshold>
            <left_val>-5.7498250156641006e-02</left_val>
            <right_val>4.4343790411949158e-01</right_val></_></_>
        <_>
          <!-- tree 18 -->
          <_>
            <!-- root node -->
            <feature>
              <rects>
                <_>
                  16 15 3 2 -1.</_>
                <_>
                  16 15 3 1 2.</_></rects>
              <tilted>1</tilted></feature>
            <threshold>-1.1604109779000282e-02</threshold>
            <left_val>-5.6103038787841797e-01</left_val>
            <right_val>5.4622549563646317e-02</right_val></_></_>
        <_>
          <!-- tree 19 -->
          <_>
            <!-- root node -->
            <feature>
              <rects>
                <_>
                  14 16 3 4 -1.</_>
                <_>
                  14 18 3 2 2.</_></rects>
              <tilted>0</tilted></feature>
            <threshold>1.1201160028576851e-02</threshold>
            <left_val>-1.1582309752702713e-01</left_val>
            <right_val>2.6828160881996155e-01</right_val></_></_>
        <_>
          <!-- tree 20 -->
          <_>
            <!-- root node -->
            <feature>
              <rects>
                <_>
                  0 8 4 6 -1.</_>
                <_>
                  1 8 2 6 2.</_></rects>
              <tilted>0</tilted></feature>
            <threshold>1.3845520094037056e-02</threshold>
            <left_val>-5.3713008761405945e-02</left_val>
            <right_val>5.6259799003601074e-01</right_val></_></_>
        <_>
          <!-- tree 21 -->
          <_>
            <!-- root node -->
            <feature>
              <rects>
                <_>
                  0 12 1 3 -1.</_>
                <_>
                  0 13 1 1 3.</_></rects>
              <tilted>0</tilted></feature>
            <threshold>-3.3649979159235954e-03</threshold>
            <left_val>-5.5582839250564575e-01</left_val>
            <right_val>5.6729950010776520e-02</right_val></_></_>
        <_>
          <!-- tree 22 -->
          <_>
            <!-- root node -->
            <feature>
              <rects>
                <_>
                  19 1 1 6 -1.</_>
                <_>
                  17 3 1 2 3.</_></rects>
              <tilted>1</tilted></feature>
            <threshold>-3.6694570444524288e-03</threshold>
            <left_val>1.5468810498714447e-01</left_val>
            <right_val>-1.7893129587173462e-01</right_val></_></_>
        <_>
          <!-- tree 23 -->
          <_>
            <!-- root node -->
            <feature>
              <rects>
                <_>
                  16 2 4 2 -1.</_>
                <_>
                  16 2 4 1 2.</_></rects>
              <tilted>1</tilted></feature>
            <threshold>-1.4425620436668396e-02</threshold>
            <left_val>5.6594622135162354e-01</left_val>
            <right_val>-5.6675169616937637e-02</right_val></_></_>
        <_>
          <!-- tree 24 -->
          <_>
            <!-- root node -->
            <feature>
              <rects>
                <_>
                  17 8 2 3 -1.</_>
                <_>
                  17 9 2 1 3.</_></rects>
              <tilted>0</tilted></feature>
            <threshold>8.2742273807525635e-03</threshold>
            <left_val>4.4224549084901810e-02</left_val>
            <right_val>-7.5438231229782104e-01</right_val></_></_>
        <_>
          <!-- tree 25 -->
          <_>
            <!-- root node -->
            <feature>
              <rects>
                <_>
                  8 17 4 2 -1.</_>
                <_>
                  9 17 2 2 2.</_></rects>
              <tilted>0</tilted></feature>
            <threshold>1.9006269576493651e-04</threshold>
            <left_val>-1.6903920471668243e-01</left_val>
            <right_val>1.6302600502967834e-01</right_val></_></_>
        <_>
          <!-- tree 26 -->
          <_>
            <!-- root node -->
            <feature>
              <rects>
                <_>
                  4 19 12 1 -1.</_>
                <_>
                  8 19 4 1 3.</_></rects>
              <tilted>0</tilted></feature>
            <threshold>6.2042479403316975e-03</threshold>
            <left_val>9.8581187427043915e-02</left_val>
            <right_val>-3.0133628845214844e-01</right_val></_></_>
        <_>
          <!-- tree 27 -->
          <_>
            <!-- root node -->
            <feature>
              <rects>
                <_>
                  15 12 3 5 -1.</_>
                <_>
                  16 13 1 5 3.</_></rects>
              <tilted>1</tilted></feature>
            <threshold>2.1788910031318665e-02</threshold>
            <left_val>-5.3648360073566437e-02</left_val>
            <right_val>6.3013547658920288e-01</right_val></_></_>
        <_>
          <!-- tree 28 -->
          <_>
            <!-- root node -->
            <feature>
              <rects>
                <_>
                  2 16 3 1 -1.</_>
                <_>
                  3 17 1 1 3.</_></rects>
              <tilted>1</tilted></feature>
            <threshold>3.0541620217263699e-03</threshold>
            <left_val>8.0923177301883698e-02</left_val>
            <right_val>-3.6277461051940918e-01</right_val></_></_>
        <_>
          <!-- tree 29 -->
          <_>
            <!-- root node -->
            <feature>
              <rects>
                <_>
                  5 0 2 1 -1.</_>
                <_>
                  5 0 1 1 2.</_></rects>
              <tilted>1</tilted></feature>
            <threshold>1.7556640086695552e-03</threshold>
            <left_val>-1.4978389441967010e-01</left_val>
            <right_val>2.0388610661029816e-01</right_val></_></_>
        <_>
          <!-- tree 30 -->
          <_>
            <!-- root node -->
            <feature>
              <rects>
                <_>
                  4 0 1 4 -1.</_>
                <_>
                  3 1 1 2 2.</_></rects>
              <tilted>1</tilted></feature>
            <threshold>-4.2399750091135502e-03</threshold>
            <left_val>-3.2791191339492798e-01</left_val>
            <right_val>8.5216052830219269e-02</right_val></_></_>
        <_>
          <!-- tree 31 -->
          <_>
            <!-- root node -->
            <feature>
              <rects>
                <_>
                  12 5 5 3 -1.</_>
                <_>
                  11 6 5 1 3.</_></rects>
              <tilted>1</tilted></feature>
            <threshold>1.7013460397720337e-02</threshold>
            <left_val>-8.0233022570610046e-02</left_val>
            <right_val>3.5816231369972229e-01</right_val></_></_>
        <_>
          <!-- tree 32 -->
          <_>
            <!-- root node -->
            <feature>
              <rects>
                <_>
                  12 7 2 2 -1.</_>
                <_>
                  12 7 2 1 2.</_></rects>
              <tilted>1</tilted></feature>
